weights
-1.6849388845058042,0.86113640519617451
0.33695280835483321,-0.38613061596156184
2.0626529171645909,-1.014651121954905
-1.4090407458128575,-0.14544299583878609
-1.1745308999324604,1.0377875805991137
0.12391765363221946,0.43585551033162778
0.1335537582980415,0.97125446600602472
1.381622584805847,1.489089705084504
1.2201634800040908,0.80317128372085445
1.2000752623523541,1.7749723249158145
1.8223398119498531,2.2681360270469249
-1.5958151608550886,1.9324850581072641
-0.91738097732862123,-1.684209372827691
2.9661247060837828,0.65963593687765598
0.75620902643785071,1.267494815806488
0.051712860542479949,-0.79422730658701801
0.64436412347308669,-1.3686960328469764
1.6196726016018697,1.3203521733292292
-0.75293184523848578,0.63468758947254555
-0.26067079926509168,1.7661910175610143
next
0.36414803073364982
0.11127510893599978
0.81889237096512346
0.51195486917320077
0.033250363437579603
0.85147532610076537
0.74886016426072821
0.24428112555037548
0.084048581067370884
-0.23791685485314804
-0.19644977860838622
-0.46519532938669478
0.33852394401744229
-0.37309435811122804
0.68072225163567068
0.82141294747111526
1.1218122142168196
0.61780755319907854
0.74384224896933615
-0.18376204138802943
next_b
0.1512215132626846,-0.71480741694501504,-1.2977224808236014,-0.78601373102738936,0.4635903279597115,-0.36862382898621998,0.25809479929130824,0.75783709339624428,0.37546272738161779,1.4316104322715102,1.5302838839335136,1.569708182859392,-2.0671295274798354,0.56003107664047402,0.38602096325940877,-1.248081308476767,-1.8650847857816482,0.44362465052198735,0.11985930105533776,1.3978985525998755
2.0425116684869824,-0.23742150484718569,-1.5785198717000082,1.6057509926523665,1.4979738732336658,0.27217497768661336,0.16883268810112945,-0.61137108815252228,-0.67872224220732791,-0.72854003410269375,-0.96238581322317029,1.96521317267799,0.87151014799257909,-2.3069406180658909,-0.073611730527478048,0.11552876946106141,-0.34435372953820265,-0.6979695168926332,1.1336585028854844,0.67295636946379644
next
-1.7978731502625251
0.55524620758992438
next_b
end
