weights
0.08273421618760768,0.06764650919471427,0.03816378357414779,0.09925037316041255,0.07228396385634966,0.06817231229550401,0.0017226585468857135,0.02415681334995686,0.09406550170957709,0.006799453077437867,0.05571623499133368,0.03812494133948373,0.06043116818888363,0.017910063418769735,0.09184134988010582,0.09080614194505524,0.09547229911685665,0.022362511224409142,0.09358136305212614,0.0837707451510511,0.041558185384995484,0.007943248923455026,0.08525266757148751,0.0866324506034237,0.09129545531967329,0.05430575287745386,0.05553937711742698,0.06134201951833916,0.058556301913697505,0.06024837956798453,0.04707986776748661,0.046426255843126055,0.07636848460843812,0.04254764673776345,0.03894062292046529,0.056357288881182695,0.017968039574645565,0.07921942297944547,0.08878838521968127,0.0659183094371529,-0.006559399087940248,0.03973300088755242,0.09187437693158465,0.08072948452492526,0.05332948808550872,0.0673679149281568,0.03399272344661085,-0.0018141416858704796,0.07596051808055668,0.06892334969093014,0.005682455932851372,0.04771482357953521,0.05058934867395415,0.007275997845063531,0.08736953057482509,0.09710800211638923,0.011986843278365333,0.07265819335465344,0.0006788748868570393,0.02306027610223419,0.05598814283582025,0.04807380962929824,0.019143887480075165,-0.0007698173869106012,0.00018100634144085123,0.016776551961979316,-0.021346783355106973,-0.03632033772447339,-0.04161631871095034,0.003026700301751362,-0.012124147844252716,-0.02789174328067669,-0.016393784899483815,-0.04499424044915766,0.006620642932197906,-0.04554564593951554,-0.015613893124544274,0.0015656129669762,0.01841413158822546,0.05864928636776251,0.006523079192146445,0.002680380550045012,0.0784479464257142,0.09150090089652249,0.0693090093746448,0.020999145415004937,0.04142902273168603,0.035486913285728436,0.06398844102680935,0.08782520238213058,0.06050442022074482,0.01833285375082138,0.02656220273564987,-0.02440057951504099,-0.007008895563099364,0.0011796484907610882,-0.02870710604388959,-0.07239137024510803,-0.0556818288997987,-0.03922198303941834,-0.07288681435986366,-0.13515956592302902,-0.11026778889471171,-0.09150675791753189,-0.02093456994322761,-0.034813810870107535,-0.004200760496751148,0.03404252945707131,0.07587256513253285,0.052206998609827415,0.024803119691222127,0.01340630090079913,0.028225452477053648,0.0740426924238108,0.024039573121358845,0.07712012593769617,0.0254972711195965,0.07932757392249806,0.06269877510496909,0.0076627509916184725,0.020429927714452484,0.0042782179721992915,-0.10382691610960991,-0.02071003417700269,-0.036880161562213104,0.012965146666837908,-0.07888965317330077,0.0005196997659660589,-0.06829206952412381,-0.15872429844474464,-0.11611983244148913,-0.1966958793145805,-0.10121736765746299,-0.04428891705516882,-0.0008859756441476867,0.05986078377510122,0.07151653715805362,0.08319533850857919,0.0022609426988823116,0.08169235545840894,0.0686365762685849,0.0866626103863383,0.03041977024692719,0.07891071018668,0.009390980423783498,0.07612412547226305,0.009528518782915257,-0.010933360583190551,-0.05667078185478182,-0.04493661101991034,-0.014385570241357337,0.009970024674744999,-0.007050275261295154,0.120935677881203,0.08218421091225069,0.07063650596604637,0.018066795000894195,-0.04762511093593658,-0.02953246230640711,-0.07409762648261109,-0.007423057665065499,-0.007281989430429452,-0.0342338055904729,0.03299907936431621,0.04622044676351282,0.010531067938085602,0.0676756306348045,0.022397411194391623,0.01670205830758139,0.04445812470750435,0.008732979927636875,0.022609443089210392,0.024966986382710988,0.050144772419860324,-0.013636167774800803,0.038869614536325404,0.0108134057577286,-0.04510553343234126,0.026869313801121963,0.10316147550880632,0.20627230000010374,0.17712727478515453,0.2402513027621991,0.22850257330792134,0.20755790608606609,0.18957409946500545,0.23881274541594427,0.16695645998910882,0.07058475159090909,0.061778099663998526,0.01718531662371226,0.060477327203185646,0.0017518503173056944,0.037895774268365975,0.013960755498733837,0.07169018221736369,0.08744411413070777,0.0607983654271861,0.011005323022742404,0.056412577968437294,0.10432410398385071,0.04963662234685388,-0.01821626972886506,-0.03453371227855749,0.000980786011645685,0.05596923989562441,0.05507825777892974,0.11079652452985916,0.20227703782805465,0.2523030534897836,0.30935476623054176,0.24415653766918582,0.3496107187864496,0.34744027346775286,0.32621694992609024,0.3683448797388522,0.3110171541782321,0.2115095074716339,0.14483134941882167,0.09661442160204355,0.08920929025239578,0.0695310842294866,0.054605539553113466,0.09076804955481414,0.0836582393759091,0.08895212506434573,0.014458557646715647,0.08480182182977872,0.09809495645808065,0.013045610729525797,0.015262200835274336,0.009800601587731541,0.03269900635101527,0.07459396544116811,0.16734476968286555,0.21642338190229723,0.19020300786836178,0.1807786601508917,0.2026071278220494,0.25902608026983126,0.2597225525691582,0.3437107286333976,0.4036273333674465,0.4275635054483051,0.3000844830663527,0.2784739984053265,0.22758736381354222,0.1526330656652511,0.10162255061236718,0.088294836503002,0.050712254811761,0.06925271675598722,0.03426233938004437,0.00959971529461199,0.002723071480914903,0.0941950043309059,0.10870473514176926,0.017341412307214994,0.034042947345131365,0.08557002637242624,0.017995778361064838,0.0897815942523446,0.11165891604369398,0.15286863217864252,0.13410648422388577,0.15821679355836887,0.1591931373390993,0.1964009838489923,0.23143490366305322,0.3043769768428628,0.35269513848487966,0.36651671435472943,0.37118305582658256,0.2806094157265175,0.24836437275278134,0.13908826332419433,0.08320277736593873,0.06571711188084617,0.017090262215629707,0.023889354308828433,0.09507884672972973,0.09805800232860817,0.0029596258070923565,0.015892350226569905,0.04583843507342688,0.1109558289610767,0.07416990093494491,0.08317678705993563,0.049482296172625555,0.09504283016245886,0.17070075002301235,0.13955951927076277,0.1689327001581087,0.09005714923393918,0.1627310935429903,0.14012276761238374,0.2390336353622706,0.22200641199742968,0.34299017226051354,0.3115511383036996,0.31789122532415853,0.29656531909459943,0.2473188882916306,0.17468514023016124,0.11118292421173687,0.1071813641178249,0.01086546083470812,0.08955880731595214,0.02971762588883427,0.09322134876998457,0.059746740619342625,0.08201237749592231,0.02593942789930969,0.11074828028545403,0.1233535221281402,0.09351475208112461,0.10534862347211155,0.047439688056008206,0.1656799293870442,0.09842744437518691,0.11653899125247391,0.11216897517206581,0.16121449152991765,0.19125547021184316,0.1641818790201818,0.15776127191986455,0.22129814099933423,0.21108173878914566,0.2606780872755817,0.17055110332741186,0.09708523301177041,0.04477726434014388,0.07035048113647954,0.11056966411087413,0.08827390569496808,0.05166190633731888,0.0483265629153158,0.08847427892168824,0.0838056070332769,0.10578069733129661,0.10021856990565224,0.12756918446417814,0.06511327356254507,0.07497766161116383,-0.0063204199594132215,0.09967321578108497,0.0934954354255792,0.10462182652474847,0.10765811393652107,0.16004572871335476,0.201748602750196,0.15544237605892935,0.03039392168888522,0.06738602563040863,0.09374336472861966,0.11913076848716506,0.14227313024693244,0.03786218511886392,0.05397705886345126,-0.011747717366621833,0.023791203583528833,0.047643905863481266,0.07722043114449466,0.03886395291150932,0.0496727922456747,0.0844010525453848,0.003754442297633887,0.09388958595023979,0.10409699946149766,0.13083492544247072,0.07408650344541329,0.003255088637052611,-0.01188774017198932,-0.008791810703826671,-0.016274768195497415,-0.033777497590735374,0.11130814258973963,0.1557798553067694,0.12143439839004581,0.041873106613951605,-0.029604459316528463,-0.003942715533468273,-0.010155391996018653,0.06503538867076278,0.0014193977647485923,-0.03636999032545887,-0.04861340416399527,-0.09583878925993129,-0.0016756209082797902,0.05329182197412236,0.025045524891473516,0.052139040587627965,0.07912222395670017,0.029978153936854792,0.052535192853054094,0.015325796841364476,0.054519590214566246,0.1033118406238723,0.02378031846789844,-0.07146766282293596,-0.07894727830289827,-0.07918085792766104,-0.0879232121439374,-0.06285833536196261,-0.01486954285955205,-0.01271700461038038,-0.04148193875147634,-0.14569682568320702,-0.14176959964777072,-0.010229160841789436,-0.037077728443229284,-0.03643655500807618,-0.07821428583509597,-0.10675267177399646,-0.07981844252874584,-0.11497486233203184,-0.04525354518258962,0.01995902014369226,0.026153221431645994,0.05070873549160104,0.07583858274621924,0.02272539061180074,0.02742303145132352,0.031348192135239886,0.10336585069615184,0.07057571220048058,0.03305657246199908,-0.10779636508285713,-0.10874013478036981,-0.11830112626650799,-0.14984855747978534,-0.12620772820507975,-0.0931130015115494,-0.13373646521088492,-0.19496062568468533,-0.18959582205455314,-0.07903844221353346,-0.030660388508505217,0.02920471878014836,-0.007555481315754717,-0.08214849118574782,-0.11947357588824571,-0.15443636342606598,-0.09094390992302333,-0.044166172880890045,0.01970012948504046,0.09697341274322441,0.0244860621105124,0.03519610634912664,0.07331184086872043,0.09686087313753787,0.0262324525564635,0.08754354059259087,0.09558941713211389,0.010068307629286692,-0.05761643541291499,-0.15842200276460205,-0.19247260639272837,-0.17038084930271982,-0.1668593826610097,-0.13735896753255764,-0.24517929193525625,-0.2688613528636292,-0.199306542032768,0.0065047999435272055,0.018275902231254602,0.0814051446731141,-0.0028986973234520984,-0.047542886496667346,-0.04435224836108861,-0.10476352508877572,-0.08885166471611092,-0.0355227100222553,-0.007159716353940879,0.07353551967901337,0.028614670397185394,0.016983780496103794,0.05375272830574807,0.014380625217256911,0.04634743117283455,0.08491949106985498,0.10000515059331362,0.05125024834278304,-0.00605724483308398,-0.061969791084545235,-0.18155910327492333,-0.15066470810075905,-0.16004225169371686,-0.2256573952582745,-0.26100656384410814,-0.22419464661236846,-0.1360303526357826,0.03700007477925577,0.026168241838395122,0.02587864274018083,-0.07051507367601005,-0.03649809594667538,-0.11930432272587592,-0.06703642332802237,-0.03468768103881582,0.045025935596355586,0.0822288064112982,0.037551164064911775,0.07329092906762298,0.03732638304181728,0.013761462568852465,0.057240916656888075,0.08027980137531203,0.04978189737123184,0.12909301294276657,0.09156664334681441,-0.001953850777228543,-0.06144189049140525,-0.16952085781540974,-0.238134905483808,-0.2613467841054542,-0.2923062987875684,-0.25435668855453203,-0.2049162203509241,-0.14967563914128454,-0.09455916636955174,-0.03715708629050492,-0.1261730873059726,-0.10194263113372082,-0.10558801562595536,-0.032234171295880916,-0.024817559243133763,-0.06872379777716776,0.049150013101079026,0.031031956979314167,0.08096641385223964,0.0589894404838359,0.051431507180876704,0.09785131570989017,0.007026812490664621,0.10160557479320197,0.08644373087057185,0.07701636042187623,0.09254934716101235,0.0647520257541393,-0.04565013527749091,-0.128852300641134,-0.2689411238242354,-0.3749580928965529,-0.3434408091947409,-0.2758706404929128,-0.2781862450094035,-0.23349141675321872,-0.17272130790642484,-0.13488931848981814,-0.17297925175175236,-0.03177446518186494,-0.10238726015612527,-0.06992529998447967,-0.08288536904307688,0.03722816311280743,0.05541782832301925,0.04513955266692439,0.08913019036023323,0.09077945892978478,0.04747934124773262,0.013492616682168963,0.057492521063165485,0.09209581950623182,0.05106223615181638,0.05410719674447621,0.12024662456661789,0.10488172680131654,0.026341553462397197,-0.007174169503841287,-0.14500845378776517,-0.29508944772850265,-0.2961889608544697,-0.36445301691946125,-0.3097774578995534,-0.3181127014364252,-0.23165883981160085,-0.1454608523486026,-0.08650756544398547,-0.01976106270223715,-0.010513678791704359,-0.025617872575114924,-0.022335229075717757,-0.04030214017786597,-0.02638626867412614,0.06779781757104669,0.01884534917841699,0.0694650213360572,0.033483480011014456,0.0050186730127207615,0.06203801531245873,0.07031066147048395,0.013741334731999061,0.04418859611077681,0.10967215108326783,0.17927945326820255,0.1385000429231232,0.03255539538654259,0.021589813869633274,-0.09928546743759574,-0.23512200031070782,-0.24148893570832497,-0.2142763547329277,-0.08326100719306076,-0.042215486029453984,-0.0821041863562186,0.0004699261355308237,0.047892035285539036,0.011599059129270362,-0.013774549235772232,-0.005373168495201598,0.03389979879361772,0.03696773565000392,0.01961900669375372,0.028530298223811038,0.004549117832097792,0.06259887128520794,0.04747438676676171,0.01627966423105308,0.09279206251328445,0.03648358039244702,0.04488467148985798,0.16879985117097765,0.19566480097714162,0.18592465854960422,0.22695315666566393,0.23458000691489572,0.2090537935198753,0.18070474774104486,0.22460651910554158,0.22854029659032146,0.21512299160171214,0.1536138337476451,0.15794895828816025,0.08246018940205396,0.04513530594101682,0.00464774999819355,0.06367224509169025,0.0548466733387448,0.08430767669912768,0.07790451095570872,0.048592106210786835,0.009208105809632692,0.03748882430990411,0.041083188659240155,0.03603722401113204,0.05715089509968355,0.018537100635388055,0.048507788205439516,0.018326292222512287,0.10329832239047942,0.1379286037135626,0.2276373458547087,0.24427996107140515,0.3742193593571855,0.3735890495360598,0.42327302454727783,0.4257793559487641,0.3466796533928955,0.31292236664757916,0.26124268896230923,0.20895002695321216,0.15100019014893298,0.06713059757569027,0.057485738765580684,0.05150899497012085,0.03139035558086502,0.016060372052228142,0.03920277988317229,0.045804771291784806,0.041868104071224384,0.03354896448766812,0.07975589055856494,0.06567528176411667,0.07611275378803099,0.0434114715189955,0.10387430756282409,0.06385373437811673,0.08843467836325378,0.1275584631688781,0.16017990887967984,0.2519742048229091,0.28751412626311734,0.2729065927338658,0.29793620657145625,0.24571595469708574,0.18107395973670615,0.1440845712272156,0.18031142502717024,0.16241191353475837,0.07190670641701641,0.10894697625648583,0.1262063593072779,0.07252598148764385,0.09436863297265771,0.07982755162506328,0.04804457295891811,0.05160112129482816,0.061103925611646466,0.004983765994173506,0.010725249836030171,0.05380786947202881,0.008619706316264505,0.03162384608445208,0.02530271732560639,0.010636266550259253,0.033371137152179604,0.11294371713990799,0.14313071449596726,0.07093891095031377,0.09219845463581453,0.08620413806385362,0.15693786322217107,0.12756920367522423,0.12093217098903583,0.11437327956443197,0.05305947441667277,0.1299495746266645,0.059886809346305116,0.1112313245785049,0.063919963755526,0.10777400908149398,0.06349535703225684,0.055896114684396314,0.0049978932392357725,0.04755328615701093,0.06893335187075636,0.028614983716432583,0.05408896049841052,0.05548277593179731,0.020212317709498183,0.05622238603352866,0.08300817030994638,0.02975550571420967,0.0869134177728172,0.045324049596037065,0.06454403102383213,0.07696388100760265,0.06405349613180411,0.05135777100459692,0.06710678770143033,0.06710905951130951,0.12561386027378968,0.09697090558042847,0.04659227561565436,0.10866273722534449,0.032082169851805016,0.03235881827824779,0.06532845267540706,0.038916120331820216,0.0992316216308712,0.03990851996867842,0.05478943939188287,0.05963071637854308,0.07705080338756139,0.08717865075410672,0.09771597251863152,0.07118241081805174,0.08974232827098359,0.07918488762505743,0.07645682229157312,0.09574522942435923,0.09753853688559555,0.04123082812218673,0.07221848538546262,0.08509035898587201,0.08061308732630489,0.09112509293080179,0.08275049702331194,0.08931371274979918,0.01737377118542342,0.008437839936704189,0.08729832955653487,0.01930376038504716,0.0987119873748434,0.04063171728750954,0.050589225016633474,0.02661962278064008,0.04659106387162546,0.08383906776846485,0.08026563669256533,0.09321929750260204,0.09484366537611978,0.09647021503928438
0.04129798106542878,0.04065152875041532,0.0002994941013012342,0.046944842714195044,0.042910049792499794,0.07034589554675376,0.07208865080159957,0.0797419696151365,0.018692217288956748,0.01659640772915668,0.010667601771164725,0.011509995760768488,0.061404660805485865,0.04728607836434208,0.013685327697150317,0.05022286111661847,0.07320888648764366,0.06809737972574352,0.07727937980480629,0.08484902658038412,0.053354182904301085,0.005163733169693286,0.01334075955006756,0.005686622118562412,0.021669117189313934,0.05696748222716007,0.024225663230647444,0.009986994246806592,0.05467459516913352,0.08973709317782015,0.02690337209502338,0.003925739309067822,0.08950931371128573,0.047437403495354566,0.08907708650032753,0.019458146943253225,0.05482320392450478,0.001704586897509425,0.07322605480091106,0.005357519387975067,0.06911850666596493,0.032485695412073815,-0.002091659586194043,0.011779896512766362,0.045990289872103414,0.03873749669325233,0.0648753581033463,0.06041508913844125,0.011621295489989792,0.0896034996819237,0.09664053828907618,0.006638302248941173,0.005343102444988324,0.009984330539446373,0.0690891286458125,0.0883653379681059,0.08627636865357681,0.09057606386256524,0.08022776739054657,0.07654434316080028,0.06809881959276808,0.07559234473351174,0.019513079236755923,0.006585029815876189,-0.0015241312367620817,-0.008341092890447427,0.03690028471160508,0.04807224354668215,0.024000438660910395,0.041001712545825526,0.04490464596842709,0.03666538325660313,0.016036615579278202,0.029647028990150995,-0.04428894271595382,0.028326893084559542,-0.017296431748090226,0.08063406314457386,0.06714876963244074,0.009592935030886108,0.0163926171213581,0.05858480613956981,0.08732503911502885,0.023896329224315484,0.009662040466297529,0.0026708990982211357,0.04220188247348801,0.09891008861165072,0.026818641549771895,0.10030867572689753,0.055304112494559986,0.04862129386712569,0.06227901288417626,0.04867535069166301,0.038082682368804216,0.04602530408990423,0.009068658257450221,-0.027087451976278678,0.03921637672635677,-0.01640810521552,-0.05169573226436003,-0.031684220766624215,-0.05229316571940262,-0.05023122554130189,-0.02159321189697402,0.06932291410346217,-0.0071942224226110895,0.012301603049977348,0.028482022048703527,0.07947936436464376,0.0327491842774796,0.08227682156659921,0.0685934139480029,0.033674493907631296,0.02695051849568548,0.0783878336381279,0.011479592143973937,0.02188791590712675,0.009451087207722258,0.07114041753362546,0.060885390459958964,0.07630769309333409,0.010175038636625926,0.010233605630689918,-0.039485741510576884,0.03212907538210132,-0.006326969647742266,-0.02257019129028622,-0.041293681811118144,-0.070543516891042,-0.058245661222548255,-0.07207658179369701,-0.010444688369063591,0.025045663104059916,0.024635482811764184,0.05382965410185402,0.09750050739741807,0.05455500395948964,0.06550327209463148,0.07185875574577777,0.07374902983674572,0.08653330536586876,0.06851919070636274,0.06902058204524578,0.058932308215518564,0.06541891902872846,0.10851677573495767,0.11028378852415255,0.09558650184727252,0.10137565217581655,0.07546879138962824,0.044292741225549624,-0.010561004368848605,-0.030083941053495225,-0.056030005004398115,-0.15778831887231856,-0.1960588674284464,-0.09765509073028801,-0.06063834889462374,-0.05675989007416702,-0.010581167484626676,0.10604833614186651,0.16038440393810396,0.1330572408917953,0.07303968289708106,0.07632666879503817,0.07105883331264344,0.0005588352445555013,0.0483272986070717,0.005417833405746276,0.014571521733854958,0.09124777109227232,0.04802060613395931,0.020542929715488132,0.08197101573875192,0.1322515831013177,0.08275061754945633,0.06309208703399123,0.08826145084325077,0.03258463220555405,0.07120949544523204,0.010700340525285545,-0.13682520764069375,-0.15309159427607788,-0.1980742274537118,-0.17718936463945636,-0.12676381171211418,-0.01949493400147981,0.06227982030122921,0.16411151389741774,0.1798213627584497,0.16094926410083105,0.12861994911278318,0.07035308902503899,0.013255083897139197,0.028516166793986338,0.02317188513097317,0.07721399872239125,0.08703739169345272,0.09398614313516898,0.04505655022121302,0.1081736899246853,0.08469124599058665,0.07131566501707354,0.12171499175275928,0.12716332838990724,0.13862209566013256,0.059923804706618365,0.067040897475345,0.013860695527251686,-0.14965964811371515,-0.20461078968934612,-0.21426739067113834,-0.14741610892100934,-0.10354722940213486,-0.00942016098784772,0.0968466134512193,0.16127320098746195,0.2071109470028052,0.21895296260376196,0.22576846933005798,0.12620984763292428,0.05286405350060162,0.04084204088813737,0.029258341516062436,0.020713851170642544,0.02496178545314337,0.07855878930411735,0.07679171896439954,0.1181864225088153,0.12688249458267503,0.0994040247331773,0.039672453255966855,0.08429776824714084,0.0727765381338126,0.015547021091385617,-0.008730118347042288,-0.06168413923095785,-0.16682765328743254,-0.09863112721740518,-0.1009027024405483,-0.029949670286221954,0.012263150391724783,-0.04217004181364583,0.04041332910858976,0.07385816849555533,0.0931657201526178,0.13065534430782969,0.2198475436141582,0.16022828512208567,0.08079483633839353,0.005395031033132661,0.002816757312600394,0.0859491291972733,0.020550017527256357,0.06738781937183444,0.06594348748664833,0.05002902426179764,0.07683830345632306,0.08261297022312328,-0.008764605913715928,-0.006602881265134233,0.022901703443520608,0.005012679850311992,-0.11137447832499107,-0.0870594954231912,-0.10028223446410107,-0.023830876443514233,0.04347954695717602,0.10469579829837353,0.03884894882079993,-0.022624386829619977,-0.11428911774040452,-0.06248634200287785,-0.036761743662492886,0.07682048655198481,0.16533374033515522,0.08280759109448686,0.04547615249398536,0.03402204897094247,0.01748888322816917,0.03546047301816055,0.06409560304038546,0.08839709490354182,0.09721488302652066,0.03409891324183138,-0.008705557967910175,-0.07342303338637016,-0.09682162475262082,0.0007480973546151039,-0.011425931603706358,-0.09882421593456213,-0.1251961318686999,-0.13611277343004957,0.01020799793844025,0.07736743964768586,0.1802562842971912,0.10986553986850106,-0.018982851731681984,-0.16111085848374224,-0.21941991606557476,-0.26343902964290544,-0.213521908892721,-0.01682398945069958,0.0965914763455657,0.11961133594868169,0.038491061584962634,0.059562622711916736,0.051679343527032136,0.01747856458345245,0.06604874148271107,0.052562949071025565,0.05309001149237827,-0.013360467867615433,-0.033374709606357494,-0.09155459417543144,-0.11305058966342665,-0.05436858200976491,-0.07010761674239871,-0.10670759286548692,-0.11482832595889625,-0.020691877515775798,0.10027888791048932,0.24104039660571885,0.1978240795574262,0.18737034589894808,0.050063991215052506,-0.20001998507086946,-0.3277407027175249,-0.37670074685085775,-0.34609773563120083,-0.2400228898173167,0.0037304955676479225,0.052300281516781455,0.05203804346732272,0.025523881446365086,0.08568523283057859,0.08223485407126481,0.056807163096366346,0.03284249540195209,0.09467868102442895,-0.0520207216215747,-0.10266057939604686,-0.19511911857994216,-0.19736820148304543,-0.20103553564227034,-0.12539532303591502,-0.04339069892864261,-0.018584679741374174,0.06122182908716957,0.22625867822652224,0.2685447036456761,0.23016822541502624,0.1401421604732457,-0.02086600218085584,-0.13024563532604608,-0.2544350425985128,-0.39220278603806796,-0.4052630771858728,-0.33036350398078274,-0.1059274481722404,0.07554361631042544,0.00780895715622728,0.08703316703504961,0.07213850670046096,0.03561214300658375,0.055289783419607295,0.06658108322241078,0.0514565498202794,-0.08143903868365748,-0.17366922741498783,-0.24364103488428265,-0.19225509293467002,-0.19940252451806129,-0.11491638281407295,0.007296228247142027,0.04082786946022114,0.15764676436790198,0.2626621719497019,0.26884950529224444,0.17873782371816876,0.20024075016125417,0.0008622562894247321,-0.11058219122507654,-0.2108330293333479,-0.40344224012227364,-0.4877421913336501,-0.3477216497911839,-0.16036475883913215,0.08426321202729205,0.05749326639440684,0.005618261186811248,0.054804819063404446,0.02999741900572068,0.06905985108883383,0.09262111389708529,0.03791280221969776,-0.07935035386212765,-0.24304844432529865,-0.2713469312532552,-0.33750050342574167,-0.24564360826958778,-0.06155315585832044,0.011632161808807863,0.19171278792992189,0.29587582954628366,0.2506004514339268,0.21585606349697617,0.25186539256364826,0.17348500954666296,0.08583515857116689,-0.022228547996427466,-0.24585683149426305,-0.3365814030517185,-0.4151669983624372,-0.2709003651361792,-0.16121175864815615,-0.0032215700661656047,0.08976174344992846,0.0017182043284022094,0.07304084674456476,0.021877445750179393,0.007679175214649856,0.053872775733063524,0.010784747176100092,-0.06720219039832556,-0.29809179746206493,-0.35629205679831466,-0.3212231636658071,-0.3141928859073289,-0.1591349279778906,0.1456991758822217,0.29070567484506415,0.3748730984914982,0.25906545224062216,0.2750875171384699,0.21186943350022122,0.202247632921577,0.07786691489611446,-0.07906443775515141,-0.17658814604562348,-0.31218075126864175,-0.3579102212752979,-0.2572002239346169,-0.04652826456381616,0.07250510723366423,0.09057912255091288,0.023646904361883762,0.07040029601418452,0.06900188054861854,0.03353373475832896,0.0749864428831502,0.0371873732199959,-0.07193107908393932,-0.228430273929473,-0.3596252740177552,-0.4341353079372225,-0.3613253430075712,-0.22168345955472368,0.04983427122611299,0.18794659839373049,0.25901802787693606,0.354620922762872,0.3707000944014823,0.34579225394303875,0.22045178382584024,0.04074057653792737,-0.13022508092901972,-0.23824580766861692,-0.3004842488948618,-0.20912294675086368,-0.17271093688910136,-0.05159751960657134,0.05275604004920232,0.013840439909902262,0.09552555471705004,0.038871176083702386,0.09680630575714162,0.04096093626059151,0.07287572646823373,0.08700409795372925,-0.056957396957012976,-0.12182188966679844,-0.32412177020074795,-0.45661636953770457,-0.3885572851413305,-0.2500870823993481,-0.0883640215054762,0.07276891942745438,0.25649753518422413,0.3261741952895807,0.2735517588782881,0.24927432644596076,0.09268901995485321,-0.05773812389468374,-0.17500338650994968,-0.24845671679320394,-0.24595276977235309,-0.1533343137799011,-0.04665093663961286,0.08111350237380033,0.09488041836449447,0.014986489971709363,0.022429790573217607,0.02550521537157859,0.02857882653936093,0.09951589856249564,0.0539898615281006,0.042752270809163245,0.02417199715338311,-0.0378449611152981,-0.2584299478980691,-0.3456882226725215,-0.4417437362316674,-0.3850796787914519,-0.1511364068159801,0.003404180977057636,0.12768817330581492,0.23147168474066396,0.14992493048154337,0.06964430463262622,-0.14302019839587296,-0.19657835116516267,-0.23564525393518074,-0.21310988607531547,-0.1422133716355802,-0.047789836820432495,0.029688368154395735,0.05409811865150558,0.11202798103637117,0.03379405072108543,0.04757147431233923,0.08947139329597839,0.07519658807070903,0.012754349273246847,0.07262447066166328,0.05175494083370778,0.04586305488213025,0.026729090394218447,-0.09985680512283958,-0.24841334325476647,-0.3383042397470829,-0.38434990671713953,-0.24381818807643008,-0.10635130202252756,0.017381201489173638,0.013148517088420936,-0.07089231154645358,-0.23616891038674903,-0.23487460788365275,-0.29385700028993206,-0.160357776744633,-0.10923194911385133,-0.007856008022167467,0.008680730976397058,0.048133103184633236,0.09292977792246565,0.11655900809448991,0.09256361054367852,0.09673427943251325,0.018637306518287756,0.029209105494132092,0.026415859076291792,0.0504491571173318,0.1345271771393988,0.11561997607826163,0.05295650160936097,-0.03738290790134599,-0.09007964507611214,-0.23060186219923792,-0.28064139096077323,-0.2546057354053316,-0.26379902135459915,-0.231795589979286,-0.23284218300340892,-0.27897029646553634,-0.3176509811500121,-0.2520533687033134,-0.1392774219159974,-0.04972165943221422,-0.023813567550681196,0.11140522542574142,0.14481894670790335,0.09170635963013464,0.06007396119727788,0.03282380108954312,0.05920048925446407,0.07471450235370579,0.058126856844828226,0.09214804138582358,0.09599467753819277,0.07954960428169193,0.10314738651687784,0.04902077801286479,0.09361699940855596,0.03814726949971915,-0.04492448587654019,-0.11659959831400214,-0.1982386679340367,-0.30883773217300886,-0.3042304631790551,-0.37861180799393723,-0.37220411636925466,-0.24883581963561124,-0.23731166539940468,-0.11960196441532044,-0.004769675800267991,0.06405272026788468,0.16826134077295765,0.11985284554458171,0.07053717388839327,0.08618378431260962,0.031581465129830746,0.10213280794535651,0.024641376059891498,0.08295244882727688,0.08128817158356068,0.012033429377206379,0.04029116643661839,0.10799646261727362,0.06826769317927292,0.018975695729777153,0.0030869401732829724,0.03065059186433982,0.0284695162852322,-0.027292025216031867,-0.12798450963319502,-0.13434003363998673,-0.21150459521351678,-0.22509245877931425,-0.13047952447053437,-0.02999478696552859,0.04210106283872538,0.13263534959680853,0.15863938149296966,0.18872954367640865,0.14771329690323115,0.1525567526398184,0.06042285589220167,0.11995977773054621,0.08062786291048309,0.04226611721617376,0.040613817471595995,0.07332660084296205,0.02963658368944718,0.08617854803967731,0.04643157122537489,0.00798632613422308,0.04317947594614023,0.08580599672619334,0.08294119183762422,-0.00996917254164309,0.013250768017397064,0.021495750637272656,-0.01744164773060392,-0.131751656104657,-0.06599702616666771,-0.025368089472271708,-0.019163818186246403,0.07536023489197549,0.13110910578319523,0.1747370303660574,0.13732129385687009,0.14799494373442587,0.09933582385848046,0.11489752324217459,0.07377735544029683,0.02350857348178634,0.08808204284618082,0.004323079879751142,0.09209489979043063,0.056342670326860446,0.009315563180503606,0.08922051882520846,0.048268438939129486,0.050605429139389674,0.05656820231522217,0.04325654117880962,0.03384347116647902,0.033798728298798715,0.07862868607057942,0.09342829803309323,0.11683544883013516,0.1006621551942701,0.09145792679259285,0.06065419393980231,0.11701020445089179,0.07926186608394897,0.1430082816333348,0.10489771225192844,0.13272431044917657,0.03838177729921811,0.08041054344484941,0.018648653342391505,0.09936778374145411,0.01746339873796942,0.041922182795886595,0.00567267661574561,0.06689253613101001,0.06185584014742292,0.08912454534607615,0.04139233655495046,0.06884848891754071,0.038099626561134685,0.032659865344040376,0.09029382796718953,0.08798194277627486,0.11476726702458483,0.08878801712184418,0.11674457765769757,0.12952165984974742,0.12685221709311936,0.15045824710849506,0.10914482135832701,0.13806849815128555,0.07570617012880863,0.12725904281751677,0.1275649630711407,0.049341304646586655,0.07057456525230692,0.06772181179240923,0.024405299347097623,0.07138808061333687,0.0629126228844622,0.056549166690482336,0.03814065825752659,0.02576101355815477,0.04289877645366953,0.03348105354732267,0.0746760622696013,0.012347770019626458,0.025682264858017542,0.008483619821163484,0.03417643714067266,0.08930367556340231,0.008388839452554838,0.09007142038202869,0.0521972648365155,0.015103136306549513,0.07924466431082644,0.026908040771730944,0.07549039598281089,0.08545924469346196,0.04752379411247962,0.036450131392176593,0.08957368039884939,0.04407115008886,0.05145525211066224,0.08210357035691569,0.051610219736322994,0.03321494895780726,0.07634255526154898,0.06653082328009918,0.032987679700733255,0.07078536015382847,0.02661647909646293,0.010877495138954385,0.07932991002016551,0.026428767377386097,0.018775296299372957,0.0185805790690241,0.07777262198200886,0.09468869283599857,0.10002569719115727,0.00268246703951938,0.01353849091957251,0.027489970893393924,0.040709384212153706,0.013215206616720645,0.045386478369886775,0.0928569806557986,0.06391216747748646,0.0378479396106683,0.06050259866349032,0.024170837633041592,0.02566919409715759,0.003580519757407063,0.047360045930116605,0.04411754619541029,0.058819960788103524,0.07210372300789805,0.01393660161771818,0.06970885022100427,0.08594163439530884
0.05682983461748383,0.07137393844119336,0.05734645014974469,0.07376130468235557,0.09215725210562423,0.09756868399332888,0.08434483732177259,0.02063895545765675,0.08744370916452035,0.056385287936336306,0.01149420954342727,0.02213042149116663,0.024526062384634423,0.06703338135954337,0.09082737942617487,0.09503866876196544,0.07785211794235496,0.004125196667865538,0.08932480078332838,0.09056461768052662,0.011104248585068666,0.0041497630757356355,0.0779196797153793,0.0017501416672635161,0.09023470654295948,0.026686584667277004,0.013004888369159662,0.002488732151328077,0.09240694635347615,0.08593458592282696,0.025788432014592123,0.08558265286880054,0.02675183790665727,0.0987604281671074,0.08599538593420214,0.023868927808259072,0.012660525394443706,0.03797531801560128,0.028510551533159612,0.09524008123181853,0.05268512671741669,0.06980999085663811,0.03134468576424433,0.0654675729902859,0.08666131130898944,0.05218641565971389,0.008000790357876849,0.007467969726083835,0.05237610945704634,0.08729312485368997,0.013039110232031885,0.08010404502756606,0.0727296858708848,0.060862462937687524,0.07491302052259725,0.04059463093938227,0.07478407752666633,0.026533550210776226,0.09589414119002936,0.08775322645539799,0.012463450824261256,0.054745540016098715,0.011455837251093321,0.09432676041089232,0.07017362871226353,0.07965372655333416,0.024915667364930994,0.016651892904044455,0.00374797630542078,0.059308855933195764,0.020269192990835107,0.07545039457684097,0.008606587375603627,0.07312103899141921,0.058899776313089375,0.09242865863784738,0.030029023851506232,0.0868471704999764,0.007499217830049623,0.04673716891302151,0.08131903131256704,0.043185171770675136,0.08496460917685442,0.06686002946351766,0.006564916593930081,0.02130400049720522,0.016240366114447173,0.07405862115727943,0.0027413298690692873,0.07183136905906681,0.09134405630568697,0.04745623265070445,0.04143382384205917,0.04123012260227575,0.042973061297057934,0.06313303370575592,0.05358741551406362,0.06039276785895429,0.03689074870648193,0.021408013820463086,-0.0024668818228554663,0.023421784583275592,0.043249532449120304,0.07392086227873382,0.06625765091640694,0.07568325303852812,0.06144178719571657,0.07783354075073878,0.014334882878303465,0.009481768374603345,0.04664933859325108,0.0591457668147754,0.05667916504096563,0.06731423695155497,0.04585061509870628,0.0533413435041954,0.003284771182505672,0.0544902256805454,0.038054034438978764,0.040838895906761506,0.09628318693855292,0.056560252274809014,0.08551820687719994,0.07308706100471328,0.10573674360122752,0.0896516472327128,0.03299865278865983,0.08008386988318966,0.016585015640379917,0.009348852234164942,0.054259980129268956,0.034696475346395646,0.04151813066708923,0.05950579747613487,0.0045421269659135935,0.08143989146937938,0.059307991872031264,0.021446586881682696,0.07690079491563741,0.05561147416450866,0.009159934172720952,0.052244761442669096,0.08134450567316491,0.03160324704793745,0.07077728004379727,0.031155445594093792,0.025079874461141065,0.10206446496825905,0.06338776157472323,0.11584490507013488,0.022573602006939496,0.08750330207626161,0.07196858032191854,0.0514704091834708,-0.00697026323125543,0.053936475555376194,0.024252788863334478,0.05608078912310816,0.06100474195655934,0.041185223464362465,0.1023821338133316,0.033241474429287834,0.05636355293776017,0.034958810020765715,0.07812197115873584,0.0846416388137489,0.07122645908030854,0.027543589430448906,0.0893768463837436,0.02955580458573462,0.030813980761969065,0.030481110600760686,0.10024449805162099,0.07144762181047244,0.10669757427065003,0.03492334274404796,0.07674754003530804,0.06177347017803169,0.028868920288888187,0.02304982682298037,0.05817588657872476,0.04770766822562572,-0.02051931067955438,-0.03761007212068709,0.01992878583049001,0.03980381093667139,0.03238868844442341,-0.0035886445325300654,0.03591208780504214,0.10111081392570138,0.028289569397536653,0.022023338866744332,0.008844063089427139,0.02538447801585948,0.05086076681751713,0.007158809802462113,0.015057366146052405,0.07253601454875276,0.010529433405979727,0.09905446446816525,0.06785406533907887,0.10477125301022726,0.05069495918791952,0.08614794629021688,0.0899655741085797,0.06473802556280134,0.06677309914719379,-0.007007759314038701,0.0029088661177214133,-0.01601704348962258,-0.020627157827213034,-0.0911021941204996,-0.09511875251292004,0.008656218996535823,-0.017019819216827037,0.06971706529183251,0.05264597948145772,0.012251376560066814,0.08656119998708071,0.03345033342366258,0.03555104265825978,0.08988014975725106,0.0598720279217853,0.0653037128168066,0.09382578870113724,0.09753295162800485,0.07797211340930492,0.06376088452050886,0.07291497207775503,0.03103358553471399,0.09397751621930922,0.0903606199106782,0.10714112151729979,0.08334880238029961,0.06677995759917306,-0.012665557661766485,0.005928957492380874,-0.08159348645371961,-0.00012729263488324302,0.012421260674871034,0.029236337652147247,0.03395112633761789,0.015589726238452305,0.07197041787628702,0.08834127365877009,0.02993987815890749,0.018414419681946258,0.04703386007249465,0.05214402440303018,0.07163342192085202,0.09124923472550313,0.0984282961980425,0.054592755351940636,0.06353786078387906,0.054886377519005033,0.04336103928368731,0.09415777202359665,0.10478799455472117,0.06390027109180449,0.07727009087630975,0.006347776858722394,-0.0003034367269763105,-0.019167033686705852,-0.025695545901615224,0.00652269701798471,0.036484565675593834,-0.012522717563363409,0.05396932128366899,0.0360178599953571,0.1376548672754896,0.056530232007619065,0.1131167631326929,0.08597061778504898,0.04871080111224101,-0.019157995591963028,0.0484132414733973,-0.008257048278078483,0.06266062262783006,0.09060089850150066,0.02652937784681438,0.01372017145848902,0.09738102513744377,0.06711589539977164,0.03737703931729981,0.07396780944439818,0.10531400069687318,0.05756286968455022,0.012261299705461394,-0.002194379486465702,-0.0014055972119746388,-0.0053261496516620105,0.02208007278408336,0.04190961850637344,-0.0035742577749109127,0.07981691869088581,0.1272662911965731,0.09329361224893867,0.14891757868767205,0.13277179724721425,0.0747688479933425,0.0010826466907672848,0.06159487498682138,0.07401110273489757,-0.006656696466688271,0.009622046557373627,0.03047243205454636,0.050336148564472494,0.05443711340374384,0.07760443249972089,0.008867023974664276,0.08355097279235592,0.025046003845830948,0.007795007774933871,0.04867352013378598,-0.01023084983155611,0.02346092819051048,-0.017719886525750586,0.01286703120935899,-0.07945410047656974,0.026255024968620286,-0.048315313560298646,-0.01962416727428361,0.05534786780794227,0.10724582660726133,0.14312019931623868,0.1383839599836631,0.13641469723297878,0.026228165208509586,0.07409605584369051,0.013681320942765932,-0.027608286230567512,0.05279289265737179,0.024526418637747845,0.08261292971477004,0.04645555231141403,0.08922917276465946,0.02462528786290149,0.06303785821872401,0.036302883820275786,0.03346316653597684,0.06247219050389,0.06343057966609882,0.007039028128373547,-0.03695401361489107,-0.016593164486965614,-0.024282708048981992,0.014423655132516694,-0.051989101530754825,-0.06984989073158791,-0.02995416867182057,0.026249613968039525,0.07486959606488079,0.055936495734069225,0.06717021908800416,0.016941569612724902,-0.007186548914216754,0.03156635355687527,0.02831133877871559,0.04035488033553367,0.03158551761664726,0.007812416562746962,0.01853271060282019,0.021161158855702737,0.013589161535673982,0.07343053852936969,0.08938054360427873,0.040299042011117614,0.013281638620431501,0.0586823591940434,0.04553350185421502,0.04075023254796365,-0.00931941231088013,0.005453042378330253,0.029780281735432852,-0.0031228674953671168,-0.012022167311287487,-0.05084656305172619,-0.02886475983144666,-0.013883323839593682,0.007283335160858614,0.056253879542951205,0.07128460810519065,0.01936441019605378,0.04862756002010266,0.07324751043606087,0.007536349086979382,0.07314169017157736,0.03785474953725125,0.0666172440957757,0.09430639465214681,0.09573906928857961,0.03565570397285308,0.010895786632358401,0.055192850734910856,0.045153523079568304,0.0696800200439552,0.05162923908103442,0.08377419645082809,0.07150544138098466,0.05395922496395974,0.033680395410532714,0.003382426050950966,-0.005565626504643114,0.04450821651698353,0.03794146858203532,-0.0420164548497503,0.05712314365973149,0.08786994104696359,0.05978802596515899,0.05484945922236813,0.03789704917255821,0.029042540237770312,0.03804831445299486,-0.0025960728122438625,0.051694327359787524,0.049212333376759856,0.0064454522918001795,0.03212877199989846,0.08459270418682181,0.09357325440030134,0.05791480058373221,0.06031067700807848,0.03958353377218969,0.051731358460379094,0.0323283109803838,0.08637979332829358,0.0784122619846105,0.02300937708867069,0.06326981286778173,0.02148341616628628,0.029529036582053737,-0.008275654800116898,0.07026527338539275,0.02278373627496535,0.12472077604741633,0.06553146946472621,0.10789050970340096,0.04242514947512918,0.11271903233839824,0.09340673518559829,0.03383205768612554,0.001901740055628901,0.07053514240614392,0.04601657603169236,0.06585974624260561,0.09262740291243764,0.047984086098774796,0.09024067959764993,0.03468106047284441,0.0803940771250352,0.036958146340452594,0.022990260846496864,0.05526557045714064,0.06039828918277964,0.10423894090023854,0.07735231916505085,0.02323763004072772,0.06589355419124734,0.01176102951411904,0.07911926912901722,0.06904554660333463,0.07540795995982094,0.08301247045579543,0.11734660897988906,0.09827201090976793,0.05215558182623992,0.06494667249206902,0.04139004791822265,0.019230787330335307,0.002135760013429093,0.06153869539420586,0.0580523341038813,0.03590786180533755,0.019034092592974283,0.026866521840087892,0.03284085310788754,0.04160578912512273,0.0891281974073163,0.06513991573671324,0.07468317060473936,0.0473424608127205,0.06685351564309797,0.09790208217000419,0.022246317357074597,0.015990997436359032,0.050013479995694846,0.04629483162080462,0.023623801314095097,0.03841000681430037,0.13392150446640932,0.1375379433924179,0.09736259284748046,0.0985737165285272,0.06120371595716875,0.0017962020725566475,0.013313652171843776,0.0726867099310587,-0.002832253885242725,0.024762475491014582,0.07364158728162025,0.024256737404512552,0.09717115305498426,0.09289070267885824,0.058826398265680674,0.028158006146179183,0.05561075337368034,0.0895704586856558,0.041454166430830525,0.09445829371970425,0.08913453223976948,0.025825124501304034,0.014481874777765854,-0.009928562393623781,0.06514358154010633,-0.010461805254779794,0.027803016520731853,0.11406613540789569,0.07749486747277787,0.14709487210164315,0.14067979154708596,0.06311876755946483,0.07304973932068597,0.005686805729940543,-0.019036188303969543,0.05477016832120325,0.066114198433088,0.09086681959443724,0.07705697644851042,0.01293675803500946,0.055783519915154164,0.052156694027661384,0.05041751755084798,0.06746421546773765,0.04593231018618749,0.012415826361519037,0.07112792526640427,0.0739196086978656,0.05755383884473308,0.08396188136390433,0.06264530336047487,0.053576910915930524,-0.005817433554296255,-0.0032973645544231785,0.04285264544648898,0.049911144355871885,0.04237586568073668,0.045620439092615754,0.030253848009466348,0.004216358872024415,-0.0038769169568888522,-0.011458461130985274,-0.015892510923536485,0.0033879098984686737,0.04718302002308184,0.08812260007944679,0.02552844550712278,0.0972304934355013,0.07835031439859082,0.09643188993490934,0.06212032350655026,0.023900880790522116,0.09530474799121749,0.09570809689391016,0.024037984006160674,0.10831427743775374,0.10018210238197074,0.06631751182889599,0.01970221426832856,0.05767451029923346,-0.007379043951206668,0.013831192286003498,0.05746889168706763,0.09157535282453716,0.0712467466171554,0.05580563692203762,0.029037042839077976,0.056786344916618964,0.03338020734672306,-0.01662851690350364,0.023725917389057553,0.06464721978118122,0.038333885993653345,0.06652281375795806,0.0744900557871419,0.02459934559465567,0.048548989666689316,0.04969364070221032,0.030995985440291685,0.042659047184916456,0.002152267604615396,0.037766062204709794,0.056531881472367665,0.035473425434184844,0.061260652066940875,0.011296882527266135,0.07242875902147976,0.041340760623679355,0.019892621329027,0.022226275222489475,0.024543785103500533,0.04479861299285907,0.025051752315416707,0.02031598326474297,0.019500961537021386,-0.0382104019658174,-0.0005488774680313358,-0.01730863782374029,0.017323922059908552,0.09024819668143182,0.04127694666150803,0.05821006667089315,0.04193253412078994,0.03784843536087662,0.058042584492748926,0.07604538732807234,0.050994875524623236,0.005715176374650004,0.0941500739824689,0.05513578221925285,0.053553963618594755,0.02985145917994513,0.04480706231849425,0.09230613690779577,0.09425765631828284,0.07884140084565482,0.06021563934058517,0.041943368720569876,0.00019699520634007447,-0.016844234346807537,0.00019791419315276642,0.018194009130982743,0.022005719685227094,0.06202949609317187,0.06553719280437759,0.06012436345860629,0.04368103762609186,0.03482161828436949,0.08534908828582233,0.08011289116686522,0.07180578639473924,0.08279156598590802,0.02234601471355406,0.002039149756801405,0.08496564648053928,0.00782354712229939,0.05112548109759303,0.09375931573530144,0.06651233928335375,0.06992207877916072,0.07854583815968125,0.03456244883531902,0.0786972792978267,0.09275139256041101,-0.020502336604370758,-0.032334227649002976,-0.006040038723977497,-0.01116115357670694,-0.0390822200112213,0.004336381910025407,0.024398903578053435,0.014083561016894064,0.04487352083062717,0.013195801869789591,0.030398553426083236,0.05073737275033041,0.011035878405975157,0.016624991567072655,0.0900521533851927,0.0970702994346093,0.05417802597249638,0.04452770230055796,0.01840596344526375,0.03491512080154054,0.05997883653856566,0.06253400656082653,0.011872681607094315,0.05449067074720203,0.0769297532157339,0.10433196282649691,0.02058925213917386,0.01063466315945651,-0.0005364421147543259,0.03908586373628129,0.05219972887765856,0.03499972102474203,0.05812953268051211,-0.007817015540862497,0.00945944024902044,0.05429938481477462,0.06253172017274827,0.027890946610275125,0.04259886308742649,-0.002227259205931709,0.008205760977161466,0.0717004412915556,0.008702449118208349,0.008602161011197054,0.09598544212279626,0.020274989303018257,0.07316156090262274,0.09562826529537675,0.009061282877988353,0.05009920374337398,0.005711981038127064,0.038329164744802795,0.004715738786423307,0.0193537716591544,0.0680494552072108,0.05323814120235407,0.01767091445879566,0.025580391939166867,0.05265697296500615,0.02551789190271137,0.024676278531288728,0.06664563720183027,0.021691820316887066,0.08192181227282708,0.03274769175515854,0.0209810634338945,0.005470091156578831,0.039138887954395817,0.02178476526114177,0.029196405535770895,0.030281533074130677,0.0873315012922212,0.06868479771552251,0.036377531471948506,0.037635857410943704,0.04856121979570808,0.01706418140242443,0.09546729348193189,0.004547691167329794,0.05786563522290275,0.003994906294790607,0.04320806226915262,0.10062244746102794,0.01966277329289403,0.018781330177756444,0.06317672794318309,0.047771030104086405,0.05128340560278629,0.0448728325783388,0.07236291553591699,0.08984157571933135,0.009345899076449693,0.05661763553668806,0.07754525441188825,0.08425245983661944,0.007137862944365783,0.06508189125518729,0.021778216174473453,0.09355926737401994,0.030440559165258396,0.013583533551085446,0.08331658593968548,0.0429396183952773,0.025873825554720863,0.005999840689395963,0.05392511243320023,0.0657189982122412,0.031567913303839915,0.08275440015848078,0.024705358518109333,0.033171268050675905,0.012492558649178843,0.07278495593150429,0.0005606449734929833,0.009703151379095129,0.06399356222061252,0.04865547182759229,0.0441288988860059,0.07781536978692154,0.06455013072440287,0.03071741794770649,0.03331655008511759,0.04208082971972092,0.07863408277715188,0.0814191890162512,0.06967936234531734,0.09770883312494967,0.020941273376721047,0.08603010384501773,0.019995646783186428,0.03290753615802407
0.012583218767284432,0.054840575636343605,0.09768441397337284,0.013717688280590857,0.026394293008034954,0.0077221708129209254,0.0367199821287668,0.00804587886905861,0.053339384098992006,0.08318873698776177,0.09128080907436845,0.06175471870738401,0.05378150556149133,0.00851902435814807,0.007803439846463197,0.011510388127829457,0.03941757190866062,0.0506159507571408,0.002829084907268642,0.043744352735618865,0.08080116727638896,0.0634316858860077,0.059728860108324566,0.03297720124420085,0.0034057448925707166,0.09712271125531542,0.03082153050387897,0.07849129064377622,0.02873643058067068,0.019310949500240225,0.006369572829224268,0.06502210452015976,0.0347694575526068,0.035864976306237584,0.059050609154153694,0.03706844025757478,0.048452149576517986,0.08729557482668471,0.06838564995514278,0.0885059053821329,0.011825814399490075,0.09924532493586499,0.06771495659747682,0.0850889223517811,0.000595533340998077,0.030761009281424626,0.003207559166909783,0.009695794855770748,0.03746399471612157,0.09937036210757402,0.06911106441833507,0.0038725569247317123,0.04690735062543858,0.07485197203197207,0.015175272774268478,0.04043469555735686,0.03261877633000341,0.03927433569992457,0.017729493422807385,0.08561878649675007,0.050375782887643716,0.09089309072995623,0.07896059595246696,0.07204362639336336,0.00046159870619537645,0.03768401884926196,0.08819421412727665,0.05907729563526909,0.06672984822081737,0.0608181178348332,0.06939510666772879,0.0880673176307597,0.02276241624049244,0.08948836448408314,0.08181855303012252,0.09139875308603988,0.036749965861392175,0.03977890149235814,0.08962121317734985,0.08004467899624039,0.09594712768411207,0.005019290754065643,0.041973143982483585,0.06689238554422092,0.06071730709618768,0.06403092421831381,0.0004472107365656099,0.02082457178305953,0.022048332876536226,0.0776954565554617,0.009178786707230215,0.026192815924328934,0.09067266748526674,0.07003243099675044,0.016445403828580295,0.0430517763696758,0.06803768346140861,0.028647085824594798,0.01510115983077525,0.02358873091422064,0.03670524489808838,0.08626605149220387,0.08110815460526613,0.06262878009324979,0.0803717786723122,0.09413608753451541,0.06046869150737041,0.04224408381571311,0.046241100899858355,0.09662073282136294,0.03477376606181992,0.013096034305611048,0.04719437551128451,0.0021443747621339108,0.060463148022793615,0.04469232382718906,0.09992809373112456,0.034739271900190834,0.0453654196629447,0.03527676868910786,0.05108214892266731,0.03827459930195811,0.08122217670031155,0.00270069472054687,0.052360621484054036,0.03932398936316236,-0.02460126196053699,-0.016931183756396705,-0.013154780306211339,0.033148247923255915,0.038065079517057614,0.05634190396615681,0.006792575521010421,0.10429327362344117,0.03916554939628171,0.05334803336298127,0.017140377136899084,0.09140491154131178,0.015967074537357104,0.036153553085889446,0.0021607786697831035,0.08418305743073283,0.04114911537866891,0.053784153486557754,0.0030558737782343565,0.04060780418235883,0.019823058237287958,0.03396409112790529,0.03982113791747172,0.017135997188400927,0.010366569419839183,0.02783540246454389,-0.02046620135834196,0.03588994029750426,-0.03609522890751692,-0.06902297266557549,-0.07202320270196531,0.023378550026789516,0.042080930625778654,0.031475008113533626,0.0627536509922915,0.10194903917353783,0.0982051089717657,0.05909188924563657,0.012561488012916252,0.05156503963007315,0.024432305168014024,0.03618235065493958,0.05355619702309209,0.024077734560195883,0.04279700678293624,0.01290940599155984,0.03137698985223153,0.0775239032056749,0.08234170049959774,0.013562184599880255,0.02568269113477255,0.04116593470563394,0.06501828144478454,0.03270771576024416,0.007031645347178245,-0.022103941666498598,0.00256437991689464,-0.012891967272427671,-0.05811475805419738,-0.015725534636881994,0.02428523738316558,-0.015662664385030174,0.015917778974000436,0.045221159241686036,0.017178523662562853,0.08984324124508615,0.0899096611881856,0.06839655214987897,0.08074503316263841,0.05424392433867244,0.028854804776438252,0.050752299991861635,0.013584752243111385,0.07961986883228933,0.07776659114379171,0.05342677326408813,0.045589323977845736,0.05644356046947711,0.0667124719205422,0.015066685692860312,0.07821829769653676,0.036443471983854246,0.031209868803905742,-0.057200179130769344,0.0005047281924342997,-0.01860010041289657,-0.01951644691878804,0.03305966000757438,0.0478013425466372,0.05026253097532955,0.06967652838776262,0.04482570796852348,0.024901665736474985,0.07581793495354747,0.08361666048109527,0.01195544545695601,0.00947480557443438,0.0018110901224192494,0.02694627516688869,0.012942076953570367,0.003193071500973215,0.05504370171774843,0.07619663903828837,0.006596370236944917,0.08073689984973689,0.09360789428097377,0.005281275450986244,0.044515867018415464,0.05896425207466369,0.02024248008813168,0.018443538466333897,0.03175896003139647,-0.01507924239957383,-0.022764915728796506,-0.020667959111296434,-0.01755711033736256,0.06715297395552558,0.011883431000660642,0.06818236994335607,0.031596096875811476,-0.00965454443718811,0.06465559722644401,0.07011233054860384,0.026273937188649354,0.06743662082634166,0.06101791161945433,0.0862414698360606,0.012163928506479134,0.013874176839481164,0.08154226401233869,0.0006522501302894868,0.0943661452112881,0.023644435584660253,-0.008639342869782725,0.06184412832664177,0.059882943805380597,0.029790782141744656,-0.011636218338598294,0.0513006652120493,0.03761225422465181,-0.015538314817501366,0.03318927522157608,0.05815461777798149,0.06438018570651544,0.0493044058228241,0.021817408296039596,-0.022199463883672766,-0.02469451043894878,0.00992776485603802,0.05468016746499162,0.09080633294938341,0.0047551016959222194,0.09652899377791761,0.04834078791533621,0.042756336046936204,0.007883029254445078,0.054004939781910205,0.07128794626100722,0.005276918184591101,0.07926851320541467,0.063493894913143,0.0013561244991469037,0.025898768299650137,0.005426753869244684,0.016974709356550228,0.06755566323426766,0.0687917303844371,0.06481631105919651,0.06560142910590192,0.07341424035850182,0.07504090151159368,0.08145462699838314,0.06648001540648511,0.025132137053315396,-0.028499955010836478,-0.05344008137360368,0.021590632670379153,0.004678322149998775,0.07847605661001301,0.0919381235119559,0.09227048404554232,0.028859779689035803,0.09229640005969746,0.006291972983381659,0.08116658542376111,0.007889988888537015,0.051115522702007345,0.043824627278858046,0.0727865115314554,0.04449083416147491,0.029039172137690562,0.03108114897976512,0.0675907232356412,0.0827078334164519,0.04807128403119637,0.06364045156118653,0.043074165521316474,0.003531327947719361,0.09882230893557371,0.0487549106469461,0.02227371321322835,-0.011928391683921647,-0.03755290635687186,-0.01402779484266982,0.03453077359950213,0.009483964268065576,0.07540878886490393,0.041340770116333136,0.05994217660562501,0.0324841217370647,0.07449618150771418,0.02514029932484083,0.06935423911614705,0.051403827666299064,0.08098786714413017,0.06864032944491164,0.10376870266016297,0.09933861467565144,0.02764354046740086,0.07025995362324003,0.10156460965323243,0.12373732984735743,0.10539365615713975,0.06979576084649068,0.012037678873704051,-0.00014916251443382368,0.06127338029107195,0.04182622077938045,0.017772746154880205,0.03331549359141201,0.02327851657480307,-0.024896122175894722,-0.03923252905819703,-0.02356321233035318,0.005574653637697527,0.041302338981831756,0.08963757105521655,0.035356681981000025,0.059846053986577864,0.09795974652913243,0.08541738970789714,0.03370378208158106,0.10694138139248242,0.022591916073499394,0.10969537506733112,0.07798638443709562,0.09997023202200367,0.05278259188704281,0.06815132512023991,0.13899090501931247,0.021495482752232297,-0.02513576662813519,0.005607186499267055,-0.0006049641693316201,0.08697869709728757,0.06883160562020982,0.05102326708613979,0.053300421931389355,0.007156103330300939,0.040607765376613876,0.03541823630846305,0.07997768688974888,0.07519710209095254,0.020238052194456794,0.03184995035121554,0.09290694218205343,0.039233301487171995,0.07637476796458376,0.09690859735878891,0.046837428741387854,0.034866967900136436,0.04909527222158486,0.09564410236104624,0.04227929695387773,0.09414649428657094,0.09446605926356363,0.1277315703255559,0.11447486405914874,0.10396056705084313,0.03449619623081556,-0.004804563405059541,0.06527069481650165,0.09481003919312872,0.11536874431630262,0.11804473115074829,0.04280008088233388,0.05972403741471754,0.045401984405582824,0.0728863758667945,0.07907782058898782,0.07040948910426792,0.07223110851190255,0.06567149523175955,0.017389641384943033,0.09770304578898024,0.03518821200823363,0.05888578078576692,0.0727564619595491,0.08048919742140903,0.04803450048222366,0.021962820511810567,0.058111530505629214,0.08734122617822744,0.07501451830106802,0.07159503452793922,0.04498118272550756,0.07433606015270629,0.02782849501358473,0.010643919737648864,0.06626420325086281,0.055967336981661474,0.07700126625226661,0.14876595084090966,0.14718275200643127,0.037797143527013494,0.05516581679986172,0.06950797735477175,0.07739594061640977,0.0140096162194328,0.06055156837112992,0.09823384136189982,0.08097650115665396,0.028369942604404993,0.035229839640654056,0.008690797070920662,0.04963100445981139,0.09134453569163443,0.08352347481573591,0.10315636533535945,0.02648277979942536,0.04054973327625929,0.08659488173748443,-0.0033046701984452273,0.02766392150682192,0.030002591836147507,-0.025996761136021947,-0.015777032427689935,0.07593995089718608,0.08545184702116838,0.051545204189462894,0.0903233569939638,0.04719622729017095,0.03509015347278673,0.027557065779644292,0.0809152784001588,0.07106878300126286,0.09086998576946696,0.04848071687319477,0.0685066780709953,0.06094141520198298,0.08620272889442473,0.04316328396291196,0.046908888783574694,0.05813725425607827,0.026609236801801543,0.008883579797727983,-0.008504363239692765,0.0438560177314285,0.03962712818585388,0.005048492301578651,-0.07126914407403305,-0.08119860691159565,-0.08343952953881513,-0.01046040939879924,-0.01345695103209433,0.060936167872015036,0.03886215293348972,0.08125809053839654,0.05587743595100563,0.05743169384568667,0.04644363647951942,0.014516548489028053,0.05135381675499036,0.03316331984208619,0.00911012936321428,0.053063113489824544,0.04306840742868952,0.04235870776460262,0.02229836819942415,0.053332947803850124,0.04876196088650593,0.03236883937905665,0.09143190596596695,0.024616329055805103,-0.016592917629502612,0.055598181027141945,-0.0037444942003307387,-0.06060866079109083,-0.0713063231106868,-0.044182211149752425,-0.07767512501120427,0.025384961517586666,0.08036026477233249,0.07608687645692694,0.08197349874813739,0.06305276841118894,0.09069148277729883,0.039335137884786896,0.054252154461661546,0.017458123795389406,0.0007515446584058215,-0.0016775281187300058,-0.010094174981514924,0.0163849840270265,0.06998757557665025,0.046675304271724304,0.09796732985527404,0.00860688286425102,0.05346418883985488,0.04677953060744656,0.08134594266606521,0.03534878969941466,0.0635236737736032,0.03714508499154148,-0.030940690241018472,-0.046398429742409625,-0.047050056724916765,-0.009612269191227025,0.010101736118579096,-0.023713747331754832,0.019706979410309026,0.07178017753914542,0.06585681260303258,0.04137614317694839,0.0329157643274578,-0.0039023687550736423,0.07430656551768229,0.06192559654256605,0.013620630464986244,-0.0019586980968625154,-0.007793622345468169,0.09408425157192529,0.07126727306708935,0.09345421527915525,0.0009576907239949861,0.07381756885230051,0.05751910427859742,0.028553009586407312,0.06782266177694823,0.014999972158544112,0.022935922032005444,-0.00992647534835789,-0.015784239903343492,-0.0727185310376673,-0.014976441334508407,-0.012598840862763677,0.019028033098735225,0.008445975230678993,-0.013942213344696105,-0.021814745766072972,0.06936550561935868,0.07368382309436411,-0.0023565003871176683,-0.02103150718749294,0.043526237581833147,-0.0012012883600409187,0.019803295890314727,0.07796593001833718,0.07998560301921905,0.012270870963407501,0.06120887709284951,0.03241404800302479,0.0025320792856422833,0.001518326064765901,0.06703428088545049,0.09969771638287407,0.07262625911913871,0.013943475403015049,-0.0020246282925826986,-0.013705930781779651,-0.043572538954758995,0.019928534237121504,0.002137009450377272,0.02016333894627584,0.00796063101531708,-0.030205962791225185,0.04137607464936209,-0.03022436977933624,-0.018352935972886536,-0.007520194952994414,-0.017080587508650175,-0.012414907080627485,0.013159509033871477,0.08628476010955598,-0.006565303882246711,-0.005099816662664809,0.007389993131245261,0.043387722350867915,0.09609405716526222,0.057366808249734114,0.08358497303536726,0.05556681957540587,0.042662456520161846,0.063362061368808,0.011188185845032245,0.03457020865900894,0.029910631939330218,-0.0020721501599511426,-0.03613254826701849,0.029812368158020505,-0.04436701416571764,-0.04158579353467027,-0.06551436418640452,0.009711919408596255,-0.04316789652141763,0.040946860704863135,0.018847817127241772,0.06491586327604379,0.009901612790357443,0.010384410515448608,0.046417008502481816,0.08941567904323358,0.09305123738941223,0.011202806913383507,0.07733326904366151,0.062371573678940584,0.017235244852195415,0.039855635181259015,0.00520797860981026,0.07533801886099231,0.04623325839826733,0.059767795885182357,0.006975314262172036,0.06210620593822599,0.03847018908247279,0.04647616574679988,0.0015388475192322526,0.007450009694429527,0.04174791127118049,0.03500767060279605,-0.027934024229382525,-0.0372127229511425,0.03138422317689265,0.061080822863278775,0.01668167209331197,0.02694597333959255,0.08890649330191823,0.07097639732162138,0.044139287835851755,0.015248728670758546,0.03675118422250718,0.04717738219720519,0.02449998822834606,0.006886336654613046,0.0075686068674515146,0.02874680310888581,0.06071227296239619,0.002907298653033008,0.013841149631517566,0.0056670192900636915,0.04123871307018562,0.030459573198121,0.04544899263192311,0.09194407405242797,0.024060464059643093,0.02595925317320289,0.026993389434859783,0.07376424845890182,0.07486300319084517,0.08067453309287281,-0.0011371306968063538,0.022050190979035628,0.05113894737442241,0.09611610854760896,0.012832704583003306,0.046458652337121494,0.04721248242042847,0.059761529783165755,0.011710325453685817,0.09393191974063857,0.06291431424110311,0.074750704083819,0.07508369641345011,0.09084929571834599,0.0967925308410346,0.0313315860253167,0.0583950961790265,0.004009560978702447,0.03835316383986987,0.020611834268638773,0.032577374924505624,0.06399395557675058,0.029910849976456634,0.09718402704941016,0.08561403928943383,0.07415961900039457,0.08042684923071011,0.031871486818358157,0.04834571625821089,0.04674663651435419,0.03408272118239772,0.1003654037729595,0.08762727571408635,0.07720656069061664,0.09112360183065646,0.09172190265809518,0.08409219603723604,0.05755398169356157,0.007888533549828766,0.012870526255761294,0.019071631744489535,0.09676628356271125,0.0719911533835251,0.021296972403148484,0.057905416121806955,0.07351384476344573,0.04226134943380539,0.04192161009032792,0.02619057761520275,0.06702703890416445,0.0074112711467399705,0.0851401085443025,0.0590075825070219,0.08371708103087173,0.02732197818909555,0.07946445825890001,0.014102769971197287,0.01384774842801474,0.05397304914862887,0.049097418019897344,0.05218860983232973,0.055477547715725405,0.06970303246243774,0.06954813033120134,0.06103865771225888,0.017218451345541442,0.004588971476135473,0.06541742355664537,0.09552522955229585,0.05051245583952011,0.06613498649234216,0.07418942990634639,0.06229684842388807,0.0748456957111841,0.004507994040256074,0.06522143484994627,0.039034511502878844,0.015248728893192159,0.09801204894732549,0.08811370428723099,0.03297441543940628,0.029906338393739244,0.09680198251187294,0.0813603052628664,0.09618078452254426,0.028402105948973112,0.0858412263344879,0.05040721177633882,0.017638062140964427,0.06092838093010033,0.05000837489447491,0.08488646189162197,0.03912846495195868,0.03595716676255986,0.06791574313520715,0.08518443519712825,0.05334661247037602,0.0827312576618838
0.059619892543592866,0.06478569943502095,0.04110330951260255,0.04165070394708285,0.09375569341947995,0.013533253193104621,0.054707459693770576,0.07447754562813651,0.044525128464262376,0.01672234937141174,0.04352140901110997,0.02415262576737671,0.03780880442989061,0.013138921513061046,0.09036573042218428,0.027362583740808074,0.043087272475030344,0.05214365345603243,0.061357565317645545,0.00679618600082893,0.040580843353299235,0.028605589535946073,0.04040075263414492,0.06825184128789982,0.06915789634860395,0.06726478503042393,0.05405838989675989,0.07166446127596181,0.0150771500970996,0.02571259395367025,0.09804092217822215,0.052343313551004536,0.0445403768821455,0.057682353523883866,0.04408809707598345,0.007698167406345324,0.007131128426733163,0.09468827574641268,0.07896057831604195,0.057731736929671915,0.04457035190103074,-0.0006237121320663258,0.022997466615999437,0.03794169027319023,0.05343973141940719,0.08414517512942073,0.032464793916857526,0.0888316664634634,0.0361363975733838,0.04332771198181134,0.011620239617279728,0.0531786494404813,0.04496778112910508,0.05948915791743801,0.07128379513777401,0.018552241003336033,0.08170815426835606,0.015451392880243576,0.061648744206632966,0.04240757607689073,0.007942552161802433,0.02422189195076753,0.08144246188177304,0.05321124550773055,0.04760942200035715,0.08928951717967751,0.08902226013988607,0.009617387420619062,0.001963723528056918,0.07056699057366635,0.04210797324513185,0.05202498180150687,-0.015704806103642867,-0.012257028848655847,0.025250129435798213,0.05130688967107212,0.05774134965344285,0.03889381918023997,-0.0028393418976814144,0.020009737728650886,0.051713187224926835,0.06167964377324698,0.08413643251619046,0.07681361419210078,0.0371436521918572,0.03775784290640484,0.06187417787577434,0.09001570707100083,0.059238630749431635,0.09689628224321722,0.022943121595034813,0.019710402426907185,0.09326481434440487,0.09181089639644185,0.09707867398852338,-0.0007566202081082413,0.0285932431763383,0.042378820830876525,0.07197312869908619,-0.02827024281234117,0.04817842640997688,-0.01686573174934526,-0.004213957342355489,-0.04075881445116222,-0.013765756189774972,0.03049383862497662,0.07416556251873242,-0.004362928442610512,0.07461761576814843,0.039752914436257863,0.06799403657274143,0.06503988203467584,0.034703496546534464,0.0012649380682094038,0.08396984464555883,0.06920768537575969,0.07834284743179287,0.03706900522534423,0.08869858085218865,0.026151288468294273,0.03048281095906445,0.06228375882246423,0.09581984993521177,0.05498237440238431,0.10710965583735975,0.08081315435011417,0.11002792624733311,0.061565648560759974,0.057399284691711364,0.00981852130268567,0.0388773319800685,-0.006450522887342186,0.03013956540325239,-0.021750726995987648,0.06724148953554707,0.08648377144131289,0.05529078171067974,0.009780318136383052,0.06589653191704185,0.08474836741974573,0.09118738374195655,0.024781210146714194,0.05118734183841521,0.009178825018873368,0.03644381454140334,0.04378668346060735,0.058383814893682794,0.06268022977111111,0.044575482576841415,0.05190945402881535,0.07640374872694604,0.07259786437273953,0.047254816862220675,0.06523278135760638,0.09259481440525343,0.007645132887040251,0.0779564725855159,0.035229977637988616,0.053349628828133426,0.04079066807068562,0.010071902776891833,0.07265861586700213,0.02222864246726109,0.015935228547711833,0.08789364678879444,0.06726703641994183,0.002969232770002044,0.057516388426955604,0.035049078842602575,0.03283823551661691,0.005585249697954947,0.006676548016135903,0.07192571449923348,0.09001258157092223,0.04418977923027171,0.06332214095599302,0.06187686791919076,0.1132507954270988,0.04470579700655647,0.024006791179709597,0.05426774936490205,0.018402588527050994,-0.04395896588567318,0.00990352925565357,0.05811736092098259,0.028371507444129647,0.04068829291640127,0.09521147907160275,0.06135610132642297,0.11181392973970813,0.0495172908850236,0.07340612190252928,0.023865570124060178,0.011017644920858428,0.0923049220451286,0.0009884972619506427,0.03961014980855105,0.0830014658463771,0.006317753644421531,0.003390800505717614,0.04567084929757534,0.054348532692665714,0.054046089484997506,0.10871266150433212,0.06625882009121699,0.07452864699739767,0.06238464078298545,0.01346691709036006,-0.017838598570418654,-0.0571303079930429,-0.0801574044203556,0.01660169525208472,-0.02279865881073055,0.10291920968281208,0.1465211900459179,0.07176700808503136,0.08011685541558404,0.11220668231605807,0.05834201617321304,0.1160849119343493,0.05767536383699546,0.07825026185330983,0.08176549206421674,0.03319330636138752,0.04857154367425667,0.022010988012918332,0.020257816457356564,0.051855923154378314,0.07618684560673256,0.1221381538295111,0.07179233578619046,0.06400933615431957,0.07908637935947958,0.09135783542557656,0.11811514447544574,0.09474208468500793,0.03584456149786205,-0.032853712341748165,0.009315209254208983,0.03619544368038694,0.05970848333936858,0.1241460121841688,0.10688030985774448,0.11087995008963832,0.18754178247845743,0.1434998765616967,0.1543475876081257,0.1338057793842818,0.09159748579651586,0.009737347957177634,0.09370997264783322,0.05923961425378124,0.06986070870511096,0.08675471476439876,0.005765995202158248,0.04597157083347203,0.015037296406944657,0.09149476307302802,0.11213449195575231,0.08149337201003312,0.10976790660355669,0.026311371726967726,0.070263077169885,0.017343797366454857,-0.024973750699507833,0.034721213502702936,0.0022982043779170456,0.10498784329321173,0.10360198623356251,0.20553852043329018,0.13490582193251835,0.12206849632946885,0.14538708125464003,0.17747801785782186,0.1661272775100099,0.09895388891767944,0.11410624363357011,0.09919129757920166,0.05398332640457222,0.07310018756525771,0.0038407383955775436,0.08706973185870887,0.09789100457646016,0.05618735934642616,0.09282317100352867,0.10616194109518373,0.09879910332922964,0.08878893909348273,0.06425748668133932,0.07077476827937962,0.06309124124426663,0.0160129637990197,0.03560345143018732,-0.04693466920837661,-0.03987530760126164,0.010450490065113708,0.12489283454629553,0.10117248106726331,0.08919714666436555,0.10758165766537714,0.12504695545486436,0.16091909525153086,0.1503429987032551,0.10253766470059644,0.03931782988723884,0.07590768820140906,0.043661804039840386,0.0787858881270704,0.0637231797768315,0.09396657958065195,0.08690860672190809,0.05207680328793284,0.05954288374118165,0.07326197670483273,0.0018413435418367682,-0.01766791778126616,-0.004606201172751501,0.01406518055725085,-0.018100377997225036,0.01239137344670536,-0.019509795779010988,-0.05578020204845025,-0.10244207935669063,-0.06665469534685234,0.02595324250681576,0.05964349191743325,0.019979886330255946,0.08066413032636645,0.08690453000476232,0.09801993586495636,0.12565772576833503,0.03886439918431351,0.05547025449470259,0.06779473308585726,0.03762745158237106,0.04030924210602199,0.005069257447385467,0.07479267383276789,0.036171612396606385,0.03576375063567058,0.04281937778836277,0.010671916151931294,0.026411406314822042,0.03931361436314149,0.02691767689206943,-0.0074170547862973885,-0.06574166039539436,-0.08470901906108312,-0.11164427814645568,-0.2128348934840921,-0.13282195424147505,-0.1636110763734651,-0.08227807834589478,-0.08489770211616145,-0.009211472465716197,0.016592658303150903,0.08438042645068028,0.11034684966629096,0.05595719789155539,0.05238044140569639,0.042854636794920256,0.05125155113277489,0.05727476905538604,0.07134271560412601,0.08092214838210456,0.09072821028158543,0.035227905567755076,0.010683881163905267,0.03830895432217798,0.00943261759166522,0.08632589424073073,0.037846663213237375,0.03840394173339979,-0.010708826315724767,2.1237405796922442e-05,-0.05263615899000827,-0.17130441754487943,-0.2299750296828102,-0.16907697103765806,-0.22576238763583104,-0.20306840803503576,-0.10681531946929881,-0.06875288302398343,0.056685227186270504,0.009947847971467198,0.08697081072189915,0.08263477076333604,0.06653592546342366,0.08048115345297595,0.045499921219364,0.02904116512591257,0.09484033903304413,0.025042757002491006,0.018257671456110208,0.09986578899410625,0.06386472983616848,0.08043905880084577,0.06292753562379597,0.041788499571126056,0.08322955260991757,0.07151547732776971,0.009777094105949092,-0.018409165757284098,-0.04722908751355956,-0.11137139276450878,-0.1842101865294195,-0.15185269730479556,-0.21786533841312436,-0.09548718920866425,-0.050604562790223115,-0.005846461693782867,0.0417218288798431,0.10729779409871598,0.011741215426081017,0.021972025890245977,0.017671081130529485,0.021118734734882714,0.041369160672691564,0.07211544538081158,0.07393452379170157,0.01840897888940627,0.008341145574152598,0.08846214551700632,0.07551537393877245,0.018991901743017656,0.03741584141928647,0.10089298995657252,0.15411702544208497,0.06818352456904399,0.04514294205954484,0.08856900530309775,-0.026789722662258385,-0.04430581565664624,-0.11183317298899964,-0.130871544436719,-0.07968019648133065,-0.04940895190968433,0.017101571108060213,0.07437396179906486,0.09544702949956152,0.0609993856798867,0.03805170588315768,0.04422673019913015,0.0886235311227377,0.03809911729607934,0.07054456428675429,0.06754818322698113,0.06249218815495005,0.006610481590041388,0.058985398577068825,0.09205764514781861,0.08998766585475204,0.024136653870233192,0.07701341511930078,0.13152569170017217,0.12750594262463216,0.13836453230334506,0.11814153362422827,0.014466963658614482,0.018638767155833295,-0.02572494754271481,-0.024254164799490902,-0.019325190987332812,0.04562375755639532,0.061573632067331845,0.11897505063925953,0.11150874465636594,0.11322479564442298,0.06369529705540704,0.11071567792571588,0.07392787456669331,0.028549858961257203,0.09015405478836125,0.054280176696294154,0.08564302044173226,0.047278089168214285,0.07165284632888044,0.06498982909733499,0.05114030444416967,0.05320750419077872,0.1178729056240612,0.18146456380342815,0.13388439452258288,0.2034873426745478,0.14187134110068872,0.0681727424027907,-0.04588173387023817,-0.03563160245355055,0.04401072527645993,0.051539483450525864,0.05923640335035758,0.08999853332609939,0.04718541423967652,0.13382920885495844,0.02284995227620395,0.04685671897308199,0.1047495169587653,0.035184117563888215,0.12085777046914316,0.12332317723146617,0.08680788395840902,0.02922339629925416,0.09783159356121517,0.05996269921023831,0.05858741879153163,0.04542510454225084,0.08108792441438492,0.03945698305234743,0.05192974549603202,0.13753926628970106,0.16039085701484382,0.1672950195696426,0.09550172133037182,0.0370374859847782,-0.0685803588555034,0.005442830939374535,0.007934042656777865,0.04271031367718212,0.06013700061587659,0.02056082997221699,0.025711647944018246,0.02785587102930626,0.037439791712353995,0.025460450479301493,0.023247160110417144,0.08162189872302993,0.12402340661923197,0.12276953456712067,0.11246281106096098,0.0978259609690768,0.06034243323829606,0.03257822766425397,0.02142934101279722,0.035210217905904125,0.01875353267374271,0.0948222913771433,0.09529036017341368,0.13885914011704595,0.2016516097090662,0.18724722880518133,0.11518183470025761,0.06488817785269643,-0.02060831456545777,0.006878936526618484,0.07554056220821805,0.029169646921399887,0.02795456399293977,-0.026164788299391967,-0.012905089448734348,0.017159167663601278,0.032559246535293594,-0.03132804705707279,0.04188749485507491,0.05627947937979302,0.15297104501995262,0.08753622779257593,0.13633444780247186,0.06601429777697541,0.04326063435629944,0.06073989528825897,0.019821101071571402,0.007719342377340792,0.09324047612639771,0.05285486867941555,0.04665229754902873,0.1456583688899416,0.1608804531326242,0.12199414296409532,0.06490073831841259,0.11633213961121347,-0.015047379568461477,0.01906108873935255,0.03738465097967569,-0.01944912111550974,-0.049461554843878625,-0.0601106526804051,-0.10154226457013088,-0.06981161492573376,-0.004341640079998485,0.03901448114033402,0.04053372600698677,0.12716853723737692,0.09070136270593902,0.08584916135738761,0.11958056752075673,0.016314282831573764,0.006639382410766853,0.028936174592840425,0.030503376935025025,0.09087009006289452,0.031380410114609056,0.07095433407903778,0.05034830423936516,0.13216313808709734,0.12416654052150158,0.13193833594357493,0.0655691019694883,0.06052780745113701,0.08403259581125605,0.023073767452362077,0.0452247955635723,-0.05386385107924979,-0.095592856846442,-0.013248921066142344,-0.01578887096011325,-0.01680268256001685,0.04135914698860633,0.04701470028384077,0.1345225926301865,0.07287313361965221,0.10703808563690616,0.0628472289499284,0.06878991147868734,0.0883861891487967,0.03230352251739613,0.07009608720378001,0.0616058325293643,0.04827822132311978,0.05175020249934746,0.0544714193388791,0.05826736469148446,0.08251569134879848,0.11311651143750431,0.03637290306880989,0.03638584171832217,0.12275546101152873,0.08933889512043601,0.04269789954444337,0.03737913835898442,0.06046729617464842,0.01099270068434672,0.02312716417107809,0.04215241306490791,0.04645092202030523,0.054084702126169,0.0764029182133032,0.11448761816899333,0.09387491204133666,0.04504044735059626,0.08276105151056415,0.046503481185760094,0.06747791853800152,0.09126935144289168,0.020582695314803136,0.03805238001177254,0.08802857487658668,0.07285986851180021,0.0480930402893902,0.04758111417307447,0.030447233480088987,0.021032818113132276,0.022610949444406385,0.036649641875044194,0.04514177612173846,0.02697059781277904,0.019440809967164595,0.05656289192856004,0.04532539696734045,-0.009824325875064082,0.07340925789816163,0.03146459400314528,0.001424235917339742,0.08514685721342961,0.018907613814182392,0.0473494014956322,0.08397882086873268,0.03818329106456564,0.09909680193686277,0.06378520127830653,0.06596440488825768,0.030634797536785646,0.02748698991952577,0.07015521391572518,0.007162851569097417,0.0762365036362947,0.012996257824297006,0.051568101679186386,0.034070371510000086,0.029832253626487892,0.07235109461205999,0.055065523758088236,-0.010892285067676796,-0.013191524140645896,0.06695474459511336,0.052472434571245015,0.031562838275005,0.03171716483674574,0.05609172258651455,0.018314277473567783,0.058659694836138386,0.014295069504531278,0.06717976856082017,-0.009002634025602523,0.08576074046361963,0.03598884285828442,0.05145763414692133,0.04761092266203633,0.03768822134676367,0.08140467125601304,0.0861428422598642,0.011759228844575165,0.07657849225975728,0.05320225006969644,0.02549425218649277,0.09878371352726543,0.050128281790476986,0.0741430562011179,0.05257981881368503,0.012260195656893465,0.03201247795258093,0.034055724641764006,0.05851452352614466,0.013504116947562846,0.06033880674084483,0.0798817392653171,0.021114687950106268,0.008868430868270669,0.03268103797881986,-0.005118680066470291,0.03921201403890628,0.051892118470587646,0.08611973909547571,0.02809458437513805,0.05715347391365193,0.009081592435263724,0.07861830673002096,0.09332946738738933,0.0817820048813241,0.08877446359955005,0.08754908152875143,0.019542868630173772,0.008913373820826319,0.013228416702572025,0.08917081990073715,0.052505712749873625,0.07402953780190004,0.0916508900425201,0.09042737376292895,0.0311566692495502,0.04285714490487956,0.0454534797372599,0.04116222698108842,0.048853364356048284,0.10068948927491221,0.08242177698914815,0.06268619069354107,0.03866976727466638,0.04224855907915803,0.0534677229899702,0.0590226254284834,0.060533406603504286,0.08460024595615308,0.07422838663157921,0.028116085930629288,0.011323688589065073,0.03738595668348037,0.05432628339415803,0.07395845779460672,0.07642723285328837,0.05061481040254773,0.0703649207232395,0.07376048332381772,0.03588014971830365,0.08041340634301816,0.02042753702938674,0.0905833861248187,0.07765333104650725,0.06789123189445385,0.07888276853331043,0.027309333960625175,0.06533286322296109,0.00890705989621908,0.04051361534910194,0.09872416492643664,0.056232925522825564,0.012690081061560004,0.025490682156293545,0.00041549530321538134,0.062207866971513655,0.010478744093940355,0.08851700871278159,0.08858266492244823,0.038001630983224864,0.055439553675470835
0.00531843492597518,0.08645840081873192,0.006639727578962728,0.023706795828518968,0.040425903546608855,0.07252475810297884,0.015533673383621226,0.018286906395928747,0.00046034687895403216,0.09606624210921873,0.046636976984657984,0.0389176932807949,0.022101975997092883,0.008230141611888024,0.04334792360615074,0.06376984876085463,0.02899421170958826,0.07392879911320263,0.0677437736425838,0.01439521917868799,0.03836652434136204,0.06843160447159628,0.08552535714697485,0.07560814965988373,0.006548143571151066,0.0037569267401042607,0.0010682682654423292,0.008511486522759204,0.010215941916577653,0.015397357727317618,0.01943715996555472,0.09543611178579461,0.05796815925973724,0.06491183107098515,0.018356796169654056,0.09902800071985479,0.03554161369983234,0.055876057298678596,0.08923392755569395,0.03362012507254376,0.017990759783166447,0.014335356278301679,0.04795847188190838,0.05723914187005773,0.09886019601292183,0.05036078812444599,0.028269332864504716,0.0662548969240168,0.03413224743452204,0.0795001443007936,0.08921351012247018,0.03908822992878273,0.092599507575744,0.08902878512096217,0.05252638803251987,0.09419864567958502,0.037604769021777985,0.0025182237361553892,0.09941550365754682,0.08443644527952708,0.06209054542165706,0.03822969359878269,0.06897313195547163,0.08105451510104902,0.0664243894990715,0.041217791990627535,0.04990908425833032,0.04818699569672148,0.047019594057564465,0.10547360413471253,0.04705669902204985,0.06818340624147515,0.09378308227645693,0.07959579010410589,0.06025864847574706,0.03246342951744047,0.011137374441288532,0.04687105686763454,0.030856714678483596,0.013636779655641433,0.08011390174238903,0.04255983042362926,0.06057048829266244,0.007318105955808463,0.04596943998602164,0.07793536720973016,0.09880073472748259,0.06679226248265299,0.032372123451814123,0.020036656530001844,0.09346305154602211,0.09732005217720614,0.0698175763527394,0.007608267849594567,0.04408991402322278,0.04883221748961925,0.07841192463943937,0.06623081943246317,0.0929933917659943,0.09697429653128813,0.04652930006328247,0.03275380012953242,0.09641211153718227,0.07741485160787953,0.06080341156510688,0.033989264833592256,0.05737766622926921,0.05564986305726503,0.09326445893522249,0.07539031724187004,0.05196165786743208,0.05104861356492642,0.008649834597627682,0.0689096689176783,0.05990357173399282,0.028641844526198026,0.09484411097074992,0.062136934791614806,0.034327673007768934,0.004833910004394891,0.03782788478423869,0.09235759315710249,0.039219923730165134,-0.010294554793596632,-0.00035846879323333825,-0.02377990255736587,0.012459629981880674,0.0467842311856996,-0.014461039309241374,0.017291756342156992,0.08592639323556812,0.03598743327133635,0.021690989919391654,0.05181684691109858,0.0461161355250634,0.04185279861201014,0.03421160181837782,0.05260515431258018,0.025457238865905087,0.03229721327104015,0.05963115383960967,0.005819505976350415,0.01030409673120773,0.08054540016657967,0.023434868954524263,0.026984217395734214,0.05097105523387218,0.055912324240300966,0.10346519877548634,0.06925483561888651,0.009920537818849514,0.05532699191242775,0.07128012636389908,0.033522834866358646,-0.006179518827891123,0.021749825458326703,0.0371042988687991,0.0015539972053713014,0.010487514404786877,0.05051182405737537,0.07714182978140569,0.06702724020679958,0.03025010660414417,0.06449506592880083,0.022019225025599568,0.06579237804093128,0.08994140403637302,0.05798874867327446,0.027519515816627427,0.09826626530150372,0.019814433619980726,0.011407280417869385,0.10280408146110909,0.013667078062956285,0.08637349033299609,0.02505835364320791,0.09064471811265458,0.0339743492583046,0.07142417000655682,0.07023469884656607,0.010107352234443446,0.07112613552657711,0.02883768034203723,0.046008753911998386,0.028709410112425615,0.06288516076580776,0.019968521536659765,-0.011331883835110466,0.06739321959734682,0.056582985908879314,0.04126877171316529,0.06386775344400401,0.03441279832166537,0.07695417724397377,0.052393776888434836,0.06810576444746884,0.04343409768244166,0.0969084326811607,0.031218242588952252,0.07329973019763891,0.04995858442967123,0.014123588812533979,0.021274380811502343,0.013656578772903152,0.04589329115332592,0.0012491040135184472,0.02160711594693544,0.022905206516682486,0.054583995792422214,0.02756180015760835,0.04111203496921319,0.09073893195217039,0.027392180044428928,-0.01391440390779013,0.026381647988916897,-0.02983867474440624,0.006072249333257282,0.05219988539738985,0.012288417547744178,0.020248891650814223,0.044557122288341744,0.03237792730529476,0.09014977738519302,0.08095804166660185,0.084492357595194,0.05761849715315889,0.07072677593732583,0.008433362259295652,0.04322465914413219,0.061825938943126595,0.028632918005621254,0.03859040256078759,0.02040719368068918,0.03720406626809717,0.02295486248023451,0.02173728391407248,0.06402354070041351,0.012325492181605599,-0.014676303577596455,0.037460538432369815,0.0432447205956892,0.0008790057797846032,0.014290167101673397,0.020569179389998065,0.021711510904812013,0.020069758482345063,-0.022042512510289537,0.02459931267870502,0.07595764578368844,0.07089320975422274,0.04815237020162159,0.0731217747809636,0.0079283410924627,0.04139684246061142,0.05327850684605139,0.03755065339059377,0.05076306128635964,0.032859847654891514,-0.013385939376491133,0.0669508119887134,-0.03472672825084093,0.04054990548322494,-0.05404916249264185,0.05023373451625251,-0.03353759476467836,0.06916986495190834,-0.004811546976753003,0.03442301670261328,-0.014361605591257914,0.037860874626201343,-0.056501089674495165,0.011009281927828933,-0.004694872091034436,-0.059971580666721966,0.04667672260793391,0.07920576679904798,0.08370642641055086,0.04230771838256834,0.004841060253871181,0.0014231240755362704,0.0804717738056173,0.011054771621748435,0.055895813374890746,0.07120077754348499,0.07257316603257478,0.07201254509292629,0.056927496972043634,0.06672417249735482,0.05412695553993166,0.047299144790656875,0.052700925569755405,-0.0003565617960067275,0.014593472485737573,0.10611800280159601,0.04579864628657384,0.036903646776971576,0.00870895251573063,-0.03693482499353444,0.02841026618379867,-0.05290193233225185,-0.022350528259036245,-0.07664101174049519,-0.04955266862169718,0.0467257691716809,0.055427042005106626,0.04448208976282423,0.0692665585374806,0.08783228006316046,0.08942173706149134,0.01970959532207965,0.04296182919510681,0.06228887819454668,-0.0022699748599188025,0.029754723444595715,0.0461162490013922,0.009047293411469563,0.0738825054320509,-0.0037977233881672733,0.09299119614439165,0.05816563897949574,0.1276012130096781,0.10663822916346206,0.09005918168261819,0.10459666458303052,0.08497067670083966,0.0019277169380554815,-0.02500929935424147,0.0003491965030573462,-0.039438427383700084,-0.010501362306887663,-0.05576194032659328,0.05640282177887219,0.06830800513309088,0.0003757633294586033,0.04811816140251217,0.0672711260814697,0.08012696261123285,0.04032845979662267,0.008422512974600166,0.0005515051289460632,0.04351114862111196,0.07877900542920874,0.019266149872936317,0.07416355051098428,0.03202544352219821,0.03526331191198433,0.05761942986907283,0.10761571325510677,0.11975187810625211,0.10350372682608912,0.0903058146241158,0.07019300036031599,0.09684917740113223,0.06263452904356717,0.003630008999764193,0.021074737859249102,-0.06189250786546012,0.032090880491389785,0.04798999748754635,0.05801915804240865,0.02106823089359611,0.05398693682270676,0.012909069412806534,0.039118922160559184,0.015122871179969632,0.01247122800241194,0.010698700978659168,0.09275149119472771,0.004345957112980146,0.023323146132777823,0.04944498646018848,0.012511219335687159,0.08153145793490604,0.13031477037115682,0.15002254883653446,0.21421434561416475,0.16213166046799907,0.11966785582022647,0.11032862294795166,0.09575385467429202,0.08578985577276406,0.06880726388535063,0.09454462489756982,0.06263393971126556,0.021380459069869986,-0.000972954614654175,-0.019755560291372792,0.025861894646637653,0.0684220157046809,0.009936321871295655,0.07045954567725131,0.042815901059849136,0.07662465761865195,0.03187691240989281,-6.97706922203658e-05,0.0520383321298294,0.005933917669304961,0.0493220813483152,0.017097763625330595,0.007813543582228846,0.02567242218583796,0.10984895080419818,0.12808031116601315,0.14699541601685326,0.08239572094413045,0.08169973672655557,0.11966417891267835,0.13954596175319492,0.10707599493169032,0.034967524303827165,0.11495211071456839,0.04290243917237,0.07909742593912962,0.057865407347922816,0.06591322103676293,-0.005887528927123259,0.052151611182757705,0.0880407100899228,0.09247410370759893,0.08638305683097133,0.05263674948821539,0.08573868884079341,0.08780179535050084,0.04400482077611524,0.0036076874057976013,0.06074944611573283,0.0022307081754606183,0.03464970230223965,0.007680189201288254,0.06777881265766493,0.06330004870063383,0.11395722324040451,0.05042005250732034,0.06153619255750442,-0.005733706170649737,0.030361482882993816,0.09961692584762857,0.063736684777894,0.07547085363796503,0.05574767091513997,0.12197870769829036,0.058109216612103956,0.07529178372797228,0.03470366332480905,0.0006939902578554278,0.021737965494746436,0.022274157545878796,0.014635469641267593,0.07796254755747853,0.05990225289924812,0.0411678710440277,0.006927783102852825,0.03581367077630823,-0.0067125911970800515,2.99380591578516e-05,0.03837984339831254,0.038166122076667995,-0.025826572206200122,0.03553922588621468,0.014150559766800115,0.034431220417652654,-0.05547648526568807,-0.056863042319676926,0.029447303361411922,0.05076561477931561,0.03531264218091685,0.10604101643100597,0.09004191117918008,0.04181156000967398,0.029533401890911103,0.0748382018172994,-0.004599787121358139,-0.008911155902577775,0.008410311240652965,0.050088248636818884,0.04584281904661315,0.07576021310042666,0.0017204828289584992,0.03453052815036606,0.09199423598407387,-0.00890401683456813,-0.03541485208028982,0.005932906061043416,0.015569996708831088,-0.025014114858978725,-0.060103274788595173,0.01572112000767361,-0.033263369256708454,-0.08151303315726892,-0.05121554383010149,-0.035696727989031646,-0.0192641315852541,-0.03949527072506397,0.06995998390165196,0.109349006337785,0.03708052873017746,0.06812458713325883,0.027800913144245827,0.03329094158156925,0.027585052175942395,0.05085351800175771,0.019220787791372835,0.04634717201818475,0.029015269434428153,0.0421222091423482,0.0712840986490728,0.08702030422744564,0.07634954447689914,0.06665279348140062,0.044611744260912974,-0.025930088044083525,-0.026565721950916096,-0.010543481218036855,-0.051896328636302114,-0.04525942967596995,-0.06559442440566682,-0.03230649445756777,-0.014149106507236102,-0.013391207131338765,0.018099407782453402,0.028668998871057456,0.10131390685501213,0.11085702788380435,0.10961192250506253,0.07333568906992809,0.05306944687311445,0.07688497729642882,-0.002763166651658165,0.05749433788515371,0.043681398027727907,0.012148358387237518,0.011180734599547874,0.09518823852961306,0.012497628916151849,0.08996952874017376,0.08568099592204534,0.05672007951908125,0.03793627441289788,-0.03345512404270803,0.004630217345549853,-0.05931777572114079,0.010216899341726343,-0.027069835014470384,-0.039414743455799865,-0.018658636339319166,-0.018215252789529436,0.03178758083908536,0.07133346229322657,0.07846512486152037,0.07425047598768574,0.09472763788994276,0.10381443470245978,0.024640451732441344,0.04166407355818217,0.0059306880538995445,-0.01734787954078979,0.06438135525031846,0.008112020472254906,0.09576395748068645,0.08858994011826009,0.07117328439262735,0.07633502694803732,0.030655437425784207,0.08770650973433226,0.02116721895005407,0.05583250127506627,-0.006153039822337325,-0.002120853101798681,-0.03894946756259529,-0.04692639372660413,-0.044698344903237305,-0.03244967684098495,0.015814803322422105,0.028510110709959555,0.06779527846441727,0.03727610770769121,0.036884264433815234,0.06417151998264098,0.01914158734655031,0.04659853478532034,0.023117557314134406,0.03732902690917711,0.00405245491653697,-0.02699793938360225,-0.0025461821118695294,0.0009875814008460525,0.09782019951662108,0.011623812262731587,0.02632115130888886,0.01258643537534413,0.0792376738820818,0.055529162268943257,0.03346679471863517,0.03576946793022453,0.0666323000317165,0.0332285682012934,0.04601475921317202,-0.020824444269542764,0.050204785999623934,0.07421489390888196,0.012547982142845185,0.013565740134377304,0.02879117058438761,0.05572945981690547,0.04097275989874539,0.106289945892113,0.033319050440895566,-0.012219795021845855,0.048705727674708446,-0.021275823465641778,0.022343696741894226,0.06880666991411788,0.02196262939024344,0.07443199224175255,0.07395811386709142,0.025716721245084284,0.019378740367504782,0.09114585835139374,0.05535067462252339,0.07046803056328231,0.04429842834757544,0.029355800757338086,0.04529860000040641,0.05193680877171964,0.017062703257890135,0.04168711395404905,0.032493999640386864,0.06354998953730415,0.06757987194288845,0.07866677189176345,0.020394929000179064,0.036209215182763696,0.02779319501912145,0.0029953886403773183,0.028592635509424466,0.020386321658812954,0.06401823254299022,0.06339890910390432,0.03931653879475314,0.07185494527886459,0.048264363106409365,0.011736116982161352,0.003029351199119046,0.012117377427259816,0.07171715332894334,0.02394303814839177,0.03976836837723715,0.05037400716393656,0.04064335270010636,0.012074602396365586,0.08054691556663895,0.046527945413042886,0.013451128613631033,0.00762959496667113,0.09017310958293163,0.056299550650472874,0.05514572619584558,0.07161855942784282,0.09077406706840146,-0.003947020471603132,0.05072786273110944,0.005756443134662895,0.004111680238354853,0.0868052979687938,0.07335595532487435,0.08182646715701511,0.05060534612293926,0.02682138727549711,0.019916744977787632,0.035853803650707235,0.03538850116589935,0.09803161941963774,0.015111064325665825,0.08651792181475149,0.09997109114636196,0.04997021550440297,0.04230765215344813,0.08205112431176702,0.05628412314186275,0.11958623932258589,0.10259364723483914,0.09932427688020992,0.06117276799581974,0.019327999289445952,0.03247240791789624,0.016912398190657558,0.051109772267409405,0.029547180366623616,0.03099559038615921,0.09037180435606361,0.07093270123994135,0.1031548101701184,0.08012734913504967,0.08802421025141585,0.017823835271038823,0.05467184430469281,0.0758064607975255,0.003755997428409978,0.09861562445607175,0.056231678226811466,0.08767383831013628,0.0291285036151376,0.09026846389019967,0.02883713531656539,0.02874322643221547,0.049361316421769295,0.07321555153243794,0.07075173230057355,0.015409028290033924,0.05186024959297702,0.0746315379560952,0.10079402678903086,0.054325232668724695,0.01699872311030179,-0.0015949969259484971,0.021205912487581406,0.040266189910981014,0.006700954430833162,0.05469260931991993,0.10184090199348063,0.060337580759676414,0.03589248097102091,0.03475455161890618,0.07972688447149859,0.07398186998662007,0.0028689651534639336,0.005170158176770447,0.045431631715207234,0.06467825971882045,0.04058320927000762,0.06140949302210774,0.029808007411543245,0.05240700584956237,0.002422202073918649,0.0713427782348576,0.08399731450612813,0.03839975012878176,0.08668136316598668,0.08249506690379181,0.03331136321951719,0.09209128624842325,0.02152234281256436,0.054006195253388546,0.07333213645739005,0.014798066686561879,0.03291520387491129,0.08457277147178828,0.04959891341641536,0.08839609941584275,0.030316727913365534,0.008760136293945307,0.0027615944578614415,0.019030352084737478,0.009127756522402785,0.01762036333647101,0.041466755021742366,0.040681832200210086,0.05083962279159062,0.08044228987303984,0.007961483695035142,0.08731959460259917,0.07688646179199575,0.031022995195049134,0.07805153628099248,0.032394715139272404,0.03889484690228453,0.03134100473006029,0.08523720016295186,0.03557069111852529,0.06693141541654253,0.05708471085433014,0.08506622100098943,0.014860163982701902,0.0030922030370569625,0.09109655213638311,0.05230759271938492,0.018350309670219743,0.020496166427222327,0.09204173115575051,0.05550156764504329,0.021987873551484894,0.089303176228442,0.08929597436924656,0.039163019413350986
