weights
0.73063852213387137,0.7686833200362545,0.18852073353445076,0.93398448571623527,0.97508312405887643,0.55693263490614831,0.64903185883250902,0.055042155540031223,0.53099140004130352,0.49973264205873447,0.29931227303943608,0.95288740806508854,0.76274647540787477,0.36510190414009802,0.34800688699786453,0.12544930958500289,0.87338522641531513,0.69643125693035957,0.042788012848933743,0.71633730409705965,0.9178919203729663,0.63368413402682633,0.59804976778904217,0.766052064295763,0.86993297622137367,0.3187903029464193,0.34133738428756788,0.059157697836476952,0.61938433590278064,0.56497997626011087,0.48904714804179994,0.17011012052157826,0.86825072674289694,0.60897978136535591,-0.30446195561406314,0.0051173098852229301,0.39427349589719618,0.93872977580876504,0.06211572553087108,0.80027581835276218,0.61158042339343477,0.65298665779654164,0.24803015358377056,0.70199202479635403,0.17875798980160518,0.64028083320270202,0.95167939490328146,0.22196283753050583,0.45429844475458026,0.17219299421171663,0.70629227175441389,0.96252451569745323,0.38129041078990467,0.78642062566064974,0.50248086716116092,0.22072080631090607,0.97825580234607423,0.93939507272316647,0.92403790494528104,0.48165076917789751,-0.2944328220387325,0.277715846468016,0.30908183746611373,0.82682715370266791,0.39586486128634912,0.60618219396753648,0.13657574946910167,0.033620754860173574,0.13763001483994275,0.94435308379907534,0.93537766951787615,0.19387993607746618,0.22650071775996061,0.2143880734947744,0.97242864499188364,0.21620190817215323,0.24187000801020975,0.72099531051105703,0.071757815844425407,-0.48516324871750921,0.17839878999449188,0.98847733519748382,0.61999507834974343,0.11667269279884274,0.19577289117203189,0.26623690301580549,0.88214274696590744,0.31095846893309564,0.68362052169644993,0.43576729075511211,0.60301612470458676,0.64390380529758828,0.44135322248431619,0.11693100923826738,0.22727172248237626,0.50466484697451852,0.58324760435244871,0.46141344368264808,0.41584181503588769,0.82797288028218119,0.73997079578368041,0.82015083212007112,0.78402317131836263,0.12142489546631063,0.12676371559601118,0.42167174982185601,-0.079455130400341661,0.28520104784429839,0.54978151224981608,0.41027280170841046,-0.44922797133881576,-0.12614063548984275,0.60224605119807095,0.052462099726920508,0.44970678118059293,0.27097281941346674,0.42199038498437735,0.053508226465005859,0.13900447275074745,0.12528971418288459,0.95282190077521955,-0.10456625795751806,-0.25017937481735048,0.016813337104423232,0.70585393009183639,0.12264773247668392,0.60651295366247659,-0.10202316997053067,-0.34847171097140012,0.29061835829421984,0.069040658469902913,0.0090912854240285512,-0.29260328220207993,-0.033429634361879103,0.20198467057261482,-0.2707409991450716,0.78591317177509334,0.18384502506937006,-0.10354038579663248,-0.23962757026372408,-0.032383459618300948,0.15912987163761522,0.19155772747629382,0.70483906118401862,0.56034612793162542,-0.037762342548690896,0.36546745888405918,-0.26190440413438842,0.73469016304001933,0.91939878406102005,0.96395182706774241,0.60204227234283725,0.096034069580732573,-0.19336520310828112,-0.07922711071858525,-0.39233071526333529,-0.20212254901042062,0.1320064805917544,-0.34643251486238802,-0.11354929878738068,-0.042269108010777739,0.27240334073209582,0.47937277492752595,-0.10415337760513811,-0.056192031588017652,-0.09225824566867924,0.022670325422313359,-0.34033795786172172,0.037580450904000105,0.0088818897033757765,-0.24592862526523082,-0.41693908273836122,-0.37732481463549838,0.91478544847317833,0.98662740257925019,0.55465498214303866,0.94456352853275904,-0.067691720907778224,0.06450331698816307,-0.06974504019381679,0.30989246394788666,-0.16114399856668699,0.083362812356080021,0.43994845747266176,0.67862135246799427,0.1470906202205795,-0.12965687252434469,0.39489873566782618,0.81900553886941119,0.17308940772876716,0.14153324700195496,0.287559449595367,0.17673950336328301,-0.1240666595678957,0.29891101377202356,0.30000938574797059,-0.019838356553002017,0.28470138531204564,0.60331164278278604,0.31286871480698708,0.46909168352759201,0.3313649767110215,0.10729671023358667,0.26760980071420565,0.29795619626308745,-0.27082441085874209,0.29473525166661041,0.38166197366875948,-0.067816174232882789,0.087857804623440838,-0.76865369809743855,0.10495391808454141,-0.29463777489727377,-0.023041324011252952,-0.17677386419378407,0.16587783693984345,-0.42405452624057827,-0.2634431035109519,0.21858544869849741,-0.21793626976843702,-0.2383987005915347,0.18643122988619437,0.10358010571094479,0.84010766841277795,0.085267257839702904,0.18666654732251187,0.80409106177652245,0.30177272457752558,-0.12304604327551209,0.57231423238196755,0.1756819358994102,-0.13145329261407726,0.22750578262887677,0.01845928055967028,0.30621702182142674,-0.007722458853205604,0.093132613303715028,0.35388619083204198,0.3751421072291069,-0.022074883156672064,0.21571799045997742,0.39941117904103601,0.3805485067305594,-0.21848949912149182,0.21787047554622632,0.30444816493466337,-0.096611614996291575,0.73937824995075041,0.49467756641864824,0.25689600144288571,0.71400617707719438,0.91964593805466688,0.44983522911179574,-0.11710625216577147,-0.069785074970281136,-0.021793045573736673,0.083650238537983132,0.29953074699009097,-0.065053296909543479,0.20877577296528244,0.011911914726313883,0.50211910012220362,0.15973450646549239,0.64677240657799828,-0.18672369093250193,-0.15845384400657045,0.38188511251251189,0.93760822177801639,0.12656181219275753,0.60888650245845111,0.42717417400425312,0.057964700313615225,0.061877254537597071,0.61692265848618844,0.85132110021356544,0.71826570380271948,0.033387950058103688,0.12918926332798764,-0.26282096732906618,0.47992210361498405,0.13487593044378479,0.088310426604423453,0.41204565657155395,0.50728882315797674,0.22425746942385316,0.14354626890201364,0.34912171050954999,0.29233713417911433,-0.18871250708065015,0.041820748154331303,0.44856257751444667,0.41444653927557662,0.2283436211178527,0.33097924601779372,0.75690674415913639,0.26551768617757365,0.091126298673968043,0.74248861472688599,0.31620909035133038,0.59367272188318865,0.93905173669631303,0.287676616468447,0.56809636876404712,-0.16846021925798565,-0.24466279730113832,-0.051430409083316642,0.096951476286986291,-0.31347312410881095,-0.096106645268236188,-0.14097190996373557,0.145808526017112,0.14413059493411209,-0.034165727122848995,-0.054108067365114247,-0.086473366125479068,0.3788510515925424,-0.18325956583092923,0.44444538147167217,-0.23466032283309834,0.38566990581233479,0.64135533584040161,0.44709753711769717,0.13788316434352921,0.96068370169211081,0.085169538398852551,0.1044150146117695,0.84957526145719453,0.60182969332475578,-0.14862699731698989,0.32946969425816736,0.41730166052845313,0.6839905500303548,0.10131569839575437,-0.057698606438844488,0.420995386010454,0.21987168501173079,0.17082144901874008,0.62698406678910112,-0.21702349771022231,0.1972590145719636,0.018987333104015798,0.26993743226420025,0.10940036036289366,0.38614554995998995,-0.071296244152318611,0.14334437098996958,0.16153399199417051,0.20102393873872687,0.67132537997248187,0.8500895141042073,0.61230118064331363,0.58915775718888008,0.51007120370541359,0.63100058243242985,-0.11401891212054327,0.028725181985111439,-0.32351190705057242,-0.16243928054554216,-0.046994425743730459,-0.018539512062754511,0.5867597534407013,-0.21306845086840442,0.12330359050093265,0.33726773904686264,-0.13090934262698015,0.092849941562570384,-0.094770723453261388,-0.36796681834397499,-0.041891711494365942,0.035744623959211248,-0.10905763585648363,0.44737957636901365,-0.13894703422342639,0.52223374186858351,0.28989542204453178,0.70111389819767311,0.51637221245048637,0.52143559741033663,-0.091487984123094224,-0.23181016450047698,-0.4344400736287366,-0.49696304225897686,0.3291314056267432,-0.2812304511815118,-0.21413469823012757,-0.30543752873887847,0.31568585117325937,-0.2126834517084997,0.11893701034603388,-0.075553577456973317,-0.15353087465342888,-0.17665002104991731,0.50004275571636203,0.29702370362073732,-0.24218076999456009,-0.24067185519510595,-0.2385624893204368,0.47407227106015248,0.51983361836324438,0.91435935912008814,0.72251877118408658,0.13003500611586549,0.47461598622661783,0.82321590926521637,0.21350384832290906,0.14239697788539302,0.44047034439515498,-0.28161158544023235,0.5774178624123214,-0.15520997224705052,-0.093205465657344486,-0.042939162518994795,-0.14764345285370831,0.12488316606095111,0.094503931749253589,0.20927152889273054,0.10839669474863046,0.071682501530465209,0.28970794741221428,-0.24497669407132697,-0.19136730888318793,-0.09490697294653902,-0.24755648472333289,0.37122576202316071,0.58686775775544353,0.26901693732175491,0.00019183535552735886,0.82230616420639613,-0.036467990535805954,0.29678281836939929,0.038537503325441216,-0.41293429253967201,-0.28161483670005705,0.15039635252664024,-0.0047851343749749911,0.087210452900936195,0.10866385335235616,0.1717740508679596,-0.049540225062225267,-0.18308102538032414,0.16185345834170681,0.48589291314465199,0.43217202687625095,0.51433561586091303,0.92192571987208471,0.37318481931057373,0.79882191143530723,0.71444270344654137,0.94584874450601275,0.69795363531458843,0.34218518887365845,0.71767135913603064,0.97573396366247167,0.38083868071220361,0.15420270978798037,0.087474900913077858,0.41820170406227775,-0.11184357166698791,0.21299833873623628,0.34346638890126596,0.32724069235949194,0.26951856863371393,-0.4848223666167647,0.055270066793401296,0.45721334885065024,0.087057253259805054,0.72237216197616838,0.62068484351679487,0.28487675471814283,3.2839357262986625e-05,-0.10960680266911735,0.64643541267299098,0.1245021185091368,0.83200045590940952,0.6516028140356277,0.69843591875014455,0.78115227491982886,0.15740898989345309,0.24181507204485667,-0.24668491051702646,0.095658491010957719,0.49706556675599467,0.59261795767599601,0.024712834370122096,0.0052481778326919576,0.48327181131778835,0.10365185308932519,0.72308411824030749,-0.22520933572242138,0.28236884875617974,0.10828284217751179,0.46632886389143258,0.59243028631252725,-0.24730037423794018,0.78314378567464882,0.40175447828611177,-0.060107239507843475,-0.10862058674378518,-0.022484558891735298,0.23450399599391902,0.30449113499948677,0.77289031247850448,0.42931649568246699,-0.069180297320257822,0.035704356435203137,0.37540380870318552,0.19498209214261142,0.86745190353760804,0.61336969745414049,0.10654065754452158,0.69740998367529905,0.86781603591542456,-0.061463535489718023,0.10083220332129723,0.10719450935318903,-0.16324225451867411,-0.23768642680631036,-0.50338204105327089,0.010700193854493698,-0.30053286171716415,0.068768677808813683,-0.045562377649003102,0.69593702817670167,0.1580923279896016,0.4304597753976056,0.51702134834346691,0.46443778173582007,0.75651497556568525,0.56791452094968364,-0.15196801765592263,0.074448951369808433,0.06919766355550501,0.12975878506743782,0.30854420019581436,-0.018279844403152355,0.018070826925791761,0.80868391249525329,0.30713671227324224,-0.20233548295017664,0.38503288557657622,-0.2149277266617986,0.35353009473018332,-0.2164051022959905,-0.39690879714792693,-0.1354794645455345,0.0034619945823135619,-0.34056063770790923,0.091282756449239041,0.5540139473194744,0.21846283685805956,0.61779951461756022,0.74591385525895793,0.70486552776234268,0.045682128179129269,-0.10911475380726811,-0.31982416822441351,0.8243902824778917,0.073026469491345794,0.12490853704726831,0.20452348208941704,-0.10526593050174095,0.60999718979424322,-0.19374283994208244,-0.19788105750058266,0.30940388275490616,0.6200593798957994,0.44037875613972077,0.096204275972458481,0.14903084267537708,0.17794479929700044,0.55518291536922471,0.41088724040699465,0.20254575907805458,-0.41577486899494159,0.70144956273713677,0.21936991649687698,0.12631562030362053,0.075130321595261118,0.089337992785256559,-0.13708967283178355,0.36854320085311404,0.43254828945657187,0.1430722311386014,0.13993506445519671,0.61497038883790456,0.47201605103666733,0.1238248172818638,0.61680103542928433,0.0014576297510874824,0.36400849947484876,0.27347044642182222,-0.21463781701170687,-0.048812337707760625,0.13130238879315997,0.030663082933375774,-0.12520265115728546,0.50068038125759051,-0.24479989412343542,0.012736535020759781,0.34920782086839364,0.94618324855430613,0.83506708055262746,0.56178925592193629,0.35721806781545246,0.63802911991060707,-0.34208688853407376,-0.051221443108868794,0.43146605956813566,-0.49378972675534749,-0.14592111428771368,-0.39361019092854221,-0.10688904404756573,0.048336962618503322,0.0037527711287468533,0.20139510455293394,0.15774381705651358,0.038387685483702673,0.26499522301187611,0.5219291039735402,0.42233300751435993,0.096810272125136335,-0.15122178473541201,-0.2064463002779989,0.29227932215641267,0.62984829448248192,0.87293484373082675,0.19515984046847501,0.93875474193316044,0.23536772710428885,-0.87039429311536121,0.17407123939765218,0.10591851217324212,-0.54523024925936403,-0.63198270687638725,0.69055980157937191,-0.067049430430233106,-0.43538609923016347,0.55931141816946983,0.010930683774203245,0.33118093625340411,-0.55801878504131408,0.28519523098802763,0.17892510371010362,0.48425805737019356,-0.16045856249151044,-0.27085294743223631,0.30267257750372073,0.47815891402984495,-0.13505255298362795,0.39487789541879947,0.4946841398680456,0.75529981126134005,0.078456320283729064,-0.19563639727923349,0.52833812531383051,0.28313985785421436,-0.00048431122594442058,0.38814309475891073,-0.038015044939955799,0.08560196793821663,0.68449462730679278,0.13158105773172149,-0.36605982425755157,0.32927674979528437,-0.048071603452661253,-0.30947310110285758,0.35178956235947051,0.14256262790231908,0.3743585133457909,0.46929696084293843,0.47990559795275328,0.31132358471597754,-0.067762157741282553,0.27840133541872242,0.97425074469059403,0.85359453212850867,0.95076358657156435,0.94565086961348788,0.75587479200816843,0.046811884108882269,0.003194794975578103,0.3568260987455345,0.36990271530977115,-0.19237270279765711,0.60656236775065853,0.99951615085898682,0.49036611306313926,0.28454936486753524,0.055819557390894059,0.34976294630689136,-0.2999798449113506,0.50431939956221139,0.15536444427433851,0.70481612410535432,-0.2836793316553653,-0.23566452315965419,0.38291221603782705,-0.24776813896738992,0.45041985901411263,0.066519707528199135,0.50787953134106367,0.74032576572638742,0.88156951268083528,0.1901460353752692,0.18345775933241515,0.37379877604951561,0.41572949653304314,0.31067711275781873,0.020552976239131025,0.082389849148702191,0.93854550649539048,0.828165832402875,0.044740299749402079,0.56372443019187324,0.076548011381680214,0.57208163304760917,0.057525911830547137,0.019947931177318412,-0.28179798738158296,0.1530671253475859,0.49742446343326108,-0.38842344515711419,-0.30849609653099874,-0.10473965766398222,0.26561604897022439,0.82859640648545496,0.33821998751851157,0.95089484038798655,0.067097445357144528,0.20121779454772618,0.76954613431687691,0.83012840799094001,0.43417295140240181,0.15975823429107275,0.46666496082928588,0.024365261734894728,0.024261265741002513,0.94504738295120927,0.19750490680965138,0.39421172917485214,0.076147201392392436,-0.4553001514990585,0.017931920929702683,0.15960340566179873,0.32351240112878632,-0.0037398047800469036,0.20783347024748011,0.12924734349347228,-0.039841971288936406,0.25077211288690149,0.54669642045357036,0.21278139071094682,0.6260916465434333,0.29514091322189556,-0.042263250521305543,0.33304247161921297,0.4390783004969937,-0.19251887025192949,0.40023525152593148,0.10483445642090072,0.45305068404848081,0.013005824202842537,-0.25074804743036844,0.21790000864074288,0.28860903083920986,0.78028969181013241,-0.053394206538667423,-0.23874062240913949,0.086681284826234828,0.29411195402989876,0.43925637040281884,0.26359244113146924,0.20438333911592232,0.38384968961903237,0.91680743345260762,0.23581245584020949,0.81071443255603548,0.37655904029012321,-0.31774801443409068,0.0093125384876413843,0.27054824915560988,-0.060527985366067308,0.022146650397483383,-0.10479034866172615,0.56733934978694855,-0.065426111107502877,0.55120415232078812,0.31210979015339296,-0.061725907903290272,-0.39196480795340816,0.15457567266535738,-0.039050309704382502,-0.077923921157665513,0.45878666880279323,-0.43499817488786724,0.21704485761720158,-0.11856775678935123,0.61419211637695514,0.81812675724935835,0.75252601572360556,0.109750776767914,0.40399635506498111,0.38039135278838621,0.058495524773802994,0.31514327481448379,-0.41805574381413757,0.080707430399905522,0.54872658132628227,-0.0040846377548211556,-0.40135392502590089,-0.068252582111913374,-0.30842063896461902,0.19368773807104678,0.1739597234594556,0.051220773526306856,-0.16748684838063588,0.47698342004441807,0.7498211466342779,0.18483195499156591,-0.12568314558625374,0.35959627024920626,-0.41562589894012075,-0.048000681169586425,0.12689706712094051,0.12783357233653247,0.29427554216515905,0.87852706295199823,0.32584407442678975,-0.1789542074159049,-0.12822649075824555,0.042755102892986785,0.038188690467359586,0.64676088112823726,0.18365254951922919,0.43253405650692256,-0.46489311918656173,-0.041553712636844535,0.1056883158982941,0.64951951188065127,-0.29130963369712171,0.18933387168035731,0.084785279744314823,-0.19675492126941452,0.69077171476029353,0.29925667888181073,0.010455079627850554,0.26703167272293593,0.26829978958433626,0.98576992536414265,0.40145292828682777,0.2542190371460511,0.75679094776555389,0.92732187292154966,0.57963841018136752,0.061533733492857505,0.21283292171476254,-0.58681014922478958,0.0012437311600671859,-0.70291673231134955,-0.071744194530177829,-0.020236357442952536,0.2784917384437976,0.30288698451056667,-0.15664797593124144,-0.127580370980586,0.1860623324385772,-0.39771384309001867,0.32924325629801526,-0.4349575230445073,0.025137187189106579,0.42695066580448532,-0.36155199856766829,0.029710507132250815,0.78039805339790203,0.99627184557748927,0.57537762059973552,0.091407064820854478,0.26154204444052964,0.34642480479080723,-0.18994337568072514,0.50994806828561201,0.27025063330863575,-0.097670559436572518,-0.034111684091359222,0.5345554743397799,-0.23252048754145158,-0.30500579239001518,0.32094828648093621,0.17207451214303912,0.35828555783762511,0.019266698435719459,0.0059660620717135052,-0.078164085598569188,0.93379000638217191,0.85565272208864585,0.18095885915234289,0.014859836814978598,0.14856984935556228,0.90630672623567321,0.26481680929530782,0.2204839478877999,0.086799019776823916,0.80015625788370037,-0.36214268905564034,-0.25021157397330429,0.0023076946086475979,0.48433766336430767,-0.013363761816122643,-0.29566775383059718,0.41290500110277795,0.28215493679856984,-0.035244944574101822,0.15730893526866496,-0.35266142099810471,0.22379674076444825,0.33983251233687156,-0.035194694215369401,0.66431215192862625,0.27572452638529404,0.90060201049251365,0.30184639220391341,0.23850324644386917,0.20165850874518235,0.49785189090316007,0.26338382692686835,0.89453104716356724,0.32691698457543406,0.70122216268378756,0.19947990527820578,-0.28595383961078524,0.99615798889418672,0.36307267991515541,0.56126001667026559,-0.17186943357220499,0.31016914512383076,-0.55005022182014907,0.20068601181286538,0.13571799363386733,0.047806757558704165,-0.17143920155777173,-0.096356028139839733,0.39893183123464449,0.037591400478187854,0.35664546266149044,0.78229295528758236,-0.059772614971064474,0.21791646240995058,0.47176178790601875,0.74528176425283421,0.33960823177911503,0.79412036988017909,0.67287490105795289,0.3099584879407058,-0.20418363220463148,0.28434615852905631,0.3513693794850884,0.10799938938109184,0.054626873130787672,0.4177291338129947,-0.0069542759729122987,0.28114941804307586,0.36739052882180084,0.026071989162659671,-0.060762716773028878,0.020656307946180549,0.52216027391338204,-0.030566740295579826,0.68453675187975915,0.52534316156789906,0.69388135297329401,0.015838050973635887,-0.027559497690867935,-0.054037894671207155,0.27096506129280612,0.97194473657787039,0.22413011335582655,0.41059945651816354,0.99689367847072652,-0.10368092697952015,-0.14144692509075008,0.43875915028915818,0.17137397576678381,0.09949720964724848,0.35368412875372757,0.423912869796713,-0.34159236574158808,-0.14624662811290962,0.59708911149064536,-0.057376565077012921,0.2467479452112894,0.69821222833901175,0.82115861568096338,0.65681797108319862,0.91793393302060933,0.32250942038029196,0.32882043016165585,0.22714867462593613,0.22027100852799636,0.76506482836038969,0.34867669674981583,0.75068084505298749,0.23920353506425629,0.93734051924446504,0.45551498046185679,0.42042643162169124,0.11304309037301626,0.10983340505343202,0.48936996349922474,0.93801693801588149,-0.32380492366115166,0.1899581489218079,0.60406633811737265,0.023882413398769852,0.69395397816878823,0.8535719138888811,0.88904356256626471,0.12379446324725907,0.16054508106908805,0.78503041298406584,0.75062532589965147,0.67903331624329732,0.4776442930505202,-0.10323873964627688,0.50077048336810503,0.98424231485626479,0.34146720259540775,0.51574778295513068,0.69183307763558921,0.028798248939291837,-0.11736240224214814,0.32332400811589812,-0.54578434056291913,0.43241939750828262,0.28907943042032158,0.040408984911655295,0.0026044113814009777,-0.22508461799071755,0.37369711777911652,0.42624112055651031,0.19457519419659619,0.59350350746626268,0.14803603429525913,0.86181486315194078,0.63953070695335856,0.65511545978677899,0.22947241654310491,0.36674738562756415,-0.1184619479269278,0.43011371043455682,0.92676255375522787,0.612964767978458,0.46867908417322668,0.42241184531214837,0.75321974039897777,0.81722897193834765,0.10818433447115687,0.26332473282497459,-0.48946874387391276,-0.1647895126619161,0.56360570617822026,0.12579947025505903,-0.014458222030718282,0.18072245341069723,0.41400705772839658,0.43378561609803318,-0.0208409925653164,-0.16371828830434834,-0.20131478555511845,0.1200837901029843,0.35476092021970401,0.37652470841802638,-0.58505235108918652,-0.42124594702358381,0.16125930688177612,0.094290769888885961,0.26755070686006566,0.78729013898490996,0.79952335940282471,0.2569951899817442,0.58372714669717285,-0.54491079492036587,-0.071703790344308335,-0.15703995324178613,0.40870339735521355,-0.15633116677765438,0.20168162206476728,0.25506269372144524,0.33898824964594731,-0.15460532447370265,0.1678629117539803,0.38352187744310717,-0.13552493965269868,0.39243365313026823,0.10638304579949222,0.28406255681991821,0.082613627228065215,0.44984793824250086,0.52469272798398814,0.46633725640308621,0.29531330197641381,0.23544603912258388,0.95909693038919297,0.86040272656662531,0.19415274765725388,0.64100769582404127,0.48198158203541941,0.012116630402893184,0.68200919224437062,-0.25585767765884759,0.040696487800995058,0.25798543794994722,-0.2220245436672699,-0.13220307526625324,0.06416385067858453,0.18581998215773862,0.13085570644109676,0.71948567941452868,-0.1553587543072214,0.001354021587283569,0.10760913881048688,0.22856634584809685,0.19161067903269621,-0.1272843147916197,0.01279168731368596,0.20597819822312458,0.049681498903381138,0.73743188941711135,0.31360822159625013,0.7121604015582319,0.041684632618576953,0.11594206176865712,-0.25881017570980408,0.059683439103900164,0.30864893186733611,-0.30249963423883874,0.0045193947228395403,-0.16905577694575488,0.35600605202858615,-0.36657893118398627,-0.06310192967679297,0.38342042923879915,0.48941530862663968,0.39325590789008641,0.026566129359253062,0.082784165177469338,0.21221119069645736,0.37184130750437078,0.039745331438701847,0.20475798496889352,0.96881375377273082,0.76565028450395278,0.91613205413020804,0.05278379439814751,0.39935539709047163,0.40066321095732271,0.57563636371699844,0.31335606834514307,0.55446679563705092,-0.27227992558526409,0.036685822127458988,-9.8313880987921942e-05,0.51491385544380275,0.01696250175472476,-0.13141070782861611,-0.11830819168075106,-0.31148964612833485,-0.15431398744133704,-0.24229858592726275,0.12111243297599032,-0.48784343528159829,-0.24640718937437542,0.29203615962835799,-0.065151571941345215,0.31598651244694381,0.99740036502518725,0.84510210463061486,0.57118172901876407,0.45529254885981207,0.51150277927109844,0.75532736448632287,0.25871481844830113,0.30912792937226974,0.73755347642037428,0.47728142776726212,0.76048350117679631,0.52275411658052306,0.73751300589688673,0.62660626228898586,0.38492579518749714,0.69299873027418923,0.51148820809198059,0.46308867106490426,0.70324609853232711,0.81918383449480503,0.26781063290826979,0.16292138330690309,0.13931768995563432,0.49518911076901762,0.075870291323110628,0.29011079354330194,0.95730427075677149,0.58833286897685566,0.70200738116792394,0.51032164035392424,0.025417463796299611,0.028735222278196138,0.40285627363963883,0.11586726997975128,0.86946209367318583,0.11578863733710221,0.78605203878718655,0.3772019935670341,0.75782788043812865,0.57642551278420562,0.64376271134616758,0.25831790682441846,0.57420997294093545,0.34342611753478092,0.11377495896833767,0.82250788120441887,0.27179355918766501,0.87696238132882998,0.30651830003226455,0.75475712337291878,0.61321515723985864,0.74418674079969493,0.10463446938288512,0.54157927401513362,0.36028355494332531,0.45886173696269217,0.61379027448532542,0.94798842915716719,0.99288738170657076,0.40506810571300111,0.18843063701868779,0.98634227800066854,0.64766262416695786,0.41058552427618855,0.73322055589630986,0.23956398058525541,0.30650200771792968,0.62635226903544816,0.86914916474635895,0.87297827394570604,0.21742115452585586,0.97506258092395237,0.033512622042459417,0.4938613435543191,0.93583083628782648,0.34941503833064513
0.030184929072921252,0.86750685216563372,0.082097633584821805,0.60815492259333781,0.6107906457936022,0.40744991218358817,0.17297510892256696,0.79744813606138265,0.5320675235914486,0.21006414599399503,0.51033545909152322,0.52001929224518539,0.99425265657613127,0.65109029029278143,0.86693008375184077,0.10265206907099644,0.63569283422096889,0.061382898450615841,0.12473769404241253,0.21353193168657592,0.62041730136352857,0.94902455228717653,0.85114521667692256,0.34702524400132928,0.53683486584375939,0.5024663948405067,0.90085337298701662,0.07511818461177,0.88783707851213955,0.42381506985606132,0.81949450093645004,0.30738680640184812,0.31853845098379874,0.97669325503132187,0.6354443120607296,-0.18666144593209055,0.54053720166318486,0.38495810876287007,0.39716408669104986,0.43717101743938347,0.60150252391896319,0.50601431132762742,0.76412702245579245,0.43268871220582217,0.75665317275043331,0.9805535162683694,0.15716043065857976,0.72708892352447863,0.87477256179066709,0.33400828364872814,0.76202566662826043,0.82845824173271909,0.58653639214920761,0.75687870979327099,0.14672902972490109,0.084467157111461022,0.9305469278416445,0.87665769852901287,0.36606160528630183,-0.2174485658646054,0.27249725591639806,0.20837501511259832,0.8426613178049327,0.19397108378307137,0.61050562963828114,0.51654277393604509,0.25328844348641955,0.29276775160642465,0.28511146962642342,0.22491055475820121,0.2503938649452736,0.027867193648700935,0.51681498717223118,0.40655363818399337,0.87841972221306941,0.20939693067453435,0.34831521922761177,0.089309235210180193,0.5746164889929386,-0.20127529333341446,0.62976814202891218,0.10715452874599063,0.067746850592023011,0.047094476585308298,0.47337145570703565,0.1098288694866756,0.08912706922715341,0.96763760447465608,0.78137238625866179,0.62718599714631351,0.77791511205636321,0.24642764482627988,0.31989849913295798,0.38179374947365263,0.50018360520360905,0.43094523763222786,0.4219497152520118,0.12660042638456825,0.69241958116012137,0.01399918175777759,0.62902851501881507,0.64736479391841795,0.053678956193575877,-0.071854921954018811,0.17605212056475592,0.24978521352069782,0.21105184844499308,-0.12310590776607597,0.38013381853565714,0.23565618234004543,-0.34999626107303361,0.15485743945901798,0.24114408441954505,0.44742388858262316,0.019013492597199508,0.13951285530479782,0.36614159828308629,0.010123116002634824,0.79895056400964171,0.90716500692420932,0.54479308456392339,0.18533528654543391,-0.27841313866480766,0.27768144488363244,0.70825450674327262,0.21382334267456216,0.53473349180847696,-0.089875671520815492,-0.1700165175133794,-0.020646659730114487,-0.094877157801919118,-0.42044369950015387,-0.088077478545631027,0.34705583163652537,-0.38709183611320502,0.032104134354881755,0.20760403168257788,0.65637202070990963,0.43563872824900396,-0.29403073438252952,-0.14129099361631997,0.2865643039998913,-0.3618297119615087,-0.3367532509986722,-0.087402447825003907,0.18542437235971393,-0.19574267758910296,0.30300391897979828,0.90773054410134935,0.29406588281829593,0.50411841059106666,0.6993543664372307,0.31702026595676303,0.26033361097445978,0.020237257221234605,-0.50447432637188416,0.30458750027602177,0.36365848181107241,-0.26525334980753479,-0.060604979536061462,-0.16072150309193628,0.60346854550071194,0.58087074666155292,0.23771585590769939,-0.041700340477849887,-0.21080071400429456,-0.29862950188396925,0.16328539976486531,-0.19805465694783705,0.45989140945903634,-0.088936255260528979,-0.40076440579263223,-0.24979845330130915,0.76139227574232182,0.074798114903077195,0.49820598908439351,0.29409158204332742,0.41928458722403128,-0.030678280907549507,-0.23087785894115212,0.2504990409602959,-0.48673792188133913,-0.19233336908812662,0.37353216692773711,0.087604790213702752,0.08418959371765776,-0.13030146858161268,0.99152572521635607,-0.22069346888218699,-0.082385855697483967,0.24587412765831684,0.49184717038573605,0.30286672664381531,0.17462060694552525,0.20397054045770244,-0.35614121528806286,-0.10625766871222604,0.70079556224467365,0.60329413575196922,0.93090522102621642,0.25661130732790383,0.37517606898950673,0.31275861443784092,0.56096614499655495,0.44789472734383529,0.042839140232894618,0.08699237792582995,0.49340290994087699,0.4435542365105169,0.55496795143306676,-0.11768789275365871,0.17888327775538007,0.079358245395146382,-0.095861762394128622,0.29934534645640049,0.59002814901351819,0.1448027694518158,0.32079731271281164,-0.39660911384442826,0.37020390568140293,0.24297203539698362,0.55039441582911419,0.0094979065215722754,0.59849743535994182,0.5509607678310513,0.92933585123182239,0.55087811858412028,0.016932679328907296,-0.00040564897093202536,0.1467278617775804,0.61224247120571207,0.22843455919159875,0.1605375658582929,0.21620114462117504,-0.18376845468618158,-0.23482070737863342,-0.37569344397122117,0.28694547435816053,0.12376734937692299,0.26480106040403273,0.27299548902848292,-0.2975477637365937,-0.10925419171964132,0.33386637187442941,0.22880553598102105,0.23770932697612715,-0.037488622509928626,0.2212748562542361,0.29264107863262623,0.28578977253410975,0.95465642685955621,0.99567668599758319,0.068502220682933435,-0.12885399157952179,0.35657943201405862,-0.38363581210747821,0.42439348085446715,0.50828522029011525,-0.34440909965567523,0.067416500451897954,0.36551662371488691,0.079265951517724739,-0.15640418963905117,-0.0067592225702084729,0.23126526420027407,-0.23239234260715214,0.6033320297803505,0.54143153935803257,0.047718648159235877,0.30117807682111541,0.57973465744794583,-0.181739357789239,0.42436041577842865,0.16467740715606072,0.89047824305607626,0.72111678063263285,0.83793413005332795,0.81051229795886093,-0.2117604719035594,-0.12985762965038691,0.61338721907909688,0.48635991847972859,0.4142332416780512,0.47823519505193424,0.5454254419007486,0.38260307841420033,0.1411312520845327,0.8089725884386757,0.51863471377428072,0.016813702044061359,0.41361918507196466,0.10030687527090879,0.54992608005728849,0.35596725348568059,0.76609781631007978,0.30623618415909892,0.51538593208213346,0.60569654327018985,0.16771454160871047,0.18979056535803107,0.35912164268154423,0.32088899150779648,0.85074427480055315,0.36454720617132474,-0.22968264299189997,-0.11176984512800103,-0.14338004307933996,-0.3788633157706856,0.4404273674999849,-0.42002206019899263,0.50476562592984242,0.14572289199322447,-0.25862956140443033,0.4636478795792498,-0.4912569386710337,0.0093947079747091038,0.073241901619105584,0.061165890216925901,0.30854471429179492,-0.030647515593905467,0.25591163156622798,0.72914476113981519,-0.10776794020858811,0.76562146327698677,0.054135235362215872,0.14916761491481767,0.92388639056525945,0.39134472024072797,0.73853553126220051,0.13568887074875105,-0.048817332848766382,0.059209774360427084,-0.40320322157292476,-0.14701407606140166,0.46766289903727348,0.3773903006477502,0.75762817054870324,0.67529787776054473,-0.31135804683978036,-0.067483862086862079,-0.038547803627251055,-0.40036558087265528,0.36845013394232173,0.11602204200465044,-0.096493782680923304,0.45817055791351441,0.024673574029316161,-0.043122282260596438,0.63323313273226411,0.8694838659726738,0.18540074399309969,0.28109147073476315,0.97659070541012749,0.71948805934763438,0.42472327718104375,-0.060502615493290328,-0.33608233211838856,0.2708348207368127,0.48867539356265166,-0.072792795362610338,-0.31838895411019497,-0.14131405575303829,0.21500171758390124,0.35200094953158706,-0.08329737489331461,0.32831605473611913,-0.14509435210712401,-0.44127733713063294,-0.38048329453530194,0.25670022089300448,0.23348097944324384,-0.051678559762085192,-0.26254883525658845,0.61823102465909774,0.602129518268254,0.47798307508238269,0.009818144208650903,0.30053641287977806,-0.16335424868652923,0.46142101166908628,-0.17551674421579358,-0.36716894853189275,-0.19241355917002542,0.068570023713316358,0.29033086480420717,0.26470710941648495,0.10391531194605952,0.10574099074202956,-0.26037755285664083,0.44730306681131465,0.4334212254040809,0.32981515311214626,0.28538327877553293,-0.28527538162003385,-0.25168980851446443,-0.12764725299590157,0.43630447658686766,0.32225733589072508,0.45321453860914696,0.67761090568172988,0.43555180082917089,0.99536289265132782,0.2819538257660299,0.92556924371976634,-0.066495651732724551,0.38610789938285728,0.39350442792852541,0.5302951715963371,0.038323844965136258,-0.2438869997317594,-0.35346879912187185,0.10368449564540445,-0.34095956668561284,0.62138347131147087,-0.0893494489057029,0.30865445023725779,-0.12901194721334897,0.31068903387778074,0.56060958818620532,0.38732007133205976,-0.32197162278427333,-0.3562066399273357,-0.17205109327526263,0.6401283498770578,0.36831560907369731,0.15607520627188476,0.97804318531349577,0.68237024525542744,-0.15209079775455811,-0.11602492616683333,-0.21617935236166619,0.40703549807860473,-0.35817172564136046,-0.41259682783595236,0.20398930849519289,-0.051721789039036854,-0.19185282778197119,-0.19398549871868412,-0.49497813537099278,-0.24967475556578514,-0.31420698782995155,0.29362519846364227,-0.12025167221917477,0.4218898980101673,0.72034056730641716,0.44087645428999689,-0.011550432483519573,0.89393218647481631,0.2176685407839507,0.56067559767436181,0.38158755408275347,0.099252752222342644,0.25011755247992318,0.92175611034649974,-0.0078889057372829013,-0.0023919375469957488,0.89255641522094376,0.43354392921463447,0.27856828704945874,-0.034656959849783953,0.59193159672034101,0.41544224070736452,0.31702431326395497,0.045737754679911591,0.19167841969221963,0.27457885100425278,0.4748333412612421,-0.06643640461753518,-0.32114223301983807,0.3157211646251315,0.25598136108591357,0.49111717252633535,0.30154028382153869,0.048542064490641246,0.55254782774991107,0.39292988431222287,0.67017128143745097,0.9902704066400545,-0.42927957401748301,0.42344900571509159,0.55860116475914501,0.62611493560479992,-0.09390561137109063,-0.31122050577007992,-0.051262662949589144,0.62385759759498005,0.30957184927212589,0.13894296036695911,0.17682304436593416,0.26373001233242938,0.58711868811899681,0.68961658584092445,0.16997394287726325,0.41042888907127406,0.023607316920771781,0.27979105049649788,0.41484662082427259,0.19653551035997113,-0.010923761455515523,0.18345919281311918,0.16424897928962368,0.29571575423325169,0.023197751698769808,0.34166397604121174,0.52043349758614732,0.082738775887700247,0.87510152915048978,0.31295572025918184,0.85461767531723998,0.79158882083558901,0.3754272445117729,0.71340532502061804,-0.17723694240513968,0.55926861741923106,0.092979441881575503,-0.1934141435823615,-0.26558293730571741,0.081053030376842333,0.085725814888385196,0.22226021817194591,0.2484832298467412,0.30339943445712592,-0.285847389752027,0.55454600464947312,0.36552257276655831,0.36492564494412039,0.70956415834366027,0.78264483503770244,0.13167626618303743,-0.05568292495390656,0.27746177943694755,-0.12202396862713752,0.63156262685570674,0.16597404895147166,0.55545939044532355,0.71931689996246961,0.96349736274945597,0.1317940630772374,-0.034280462730538225,-0.16286488650981626,0.45224003231109527,0.183480991204653,-0.32193748333423983,-0.30151417062298397,0.58448927922392613,0.036741531441060869,-0.14030530276102604,0.21550551447948862,0.36840422326195038,0.12053140713952359,0.059465963187748327,0.22019074601836697,0.38637163077932224,0.019836697914637717,-0.39915761781144576,0.24914324728916168,-0.03316732571165025,-0.21151829386093024,0.27611449129506316,-0.096470715769314985,0.098435294750719854,0.33182262948675911,0.010725486681044777,0.020122260787582509,0.22410524344405913,0.66245035347114389,-0.31742002313415274,0.28142077614666261,0.3254793688473856,0.10397833524718773,-0.096706251298113569,0.21693884668991048,0.20864381633822018,-0.43880887473530711,0.39532480106145318,0.060849624821124437,0.65356344254835264,0.67327362829414861,-0.14179394275535775,-0.26804048522491764,0.50587588511523518,0.057351140071059126,0.20358713276120199,-0.41958893304835532,-0.24741740619129435,-0.15517688671813709,0.0031039603552410621,-0.14582846917344969,-0.40310336629317683,0.24998624768635652,-0.26831212117762626,-0.012161347400893295,0.33504406000695464,0.067381466769371498,0.4543980975095252,-0.047354878909048409,-0.12275912709902129,-0.21945297689023718,-0.23431625346858123,0.84780449967509797,0.18516426687678467,0.27084614977724453,0.71560462505333733,0.062795126634005757,0.53631245445079967,-0.20506421902483707,0.21549920994098617,0.60699259441599607,0.26495277321482624,-0.18889768911421526,0.012822560043424178,0.092893883067730054,0.19271324491364639,-0.18281558894833563,-0.096836068061563307,-0.39274670504379,0.010518754345864785,-0.38368592626910453,0.50243021710939417,0.26388881948134452,-0.092885415701861068,0.30981848969171827,-0.10648416047609816,0.045996762847710551,0.36079218617363595,0.40294649437435703,0.16600876578712143,0.68661124170102905,-0.18318536627628298,-0.32913526402403359,0.15031670138925893,-0.46604768411438169,-0.15607426911938138,-0.3881336524179016,0.25769601688100757,-0.13081305667113194,-0.10692364101551535,0.4526713590123872,0.37982798519124517,0.28831623225139907,0.023859003058481976,0.83102492336848011,0.47245291056141336,-0.018283073994048323,-0.42243791960159027,-0.13686349987569663,-0.15504804630615432,0.48397294434613153,0.58608381186581615,0.34461573043431237,0.77422862555984107,0.78029343934254103,0.45478851288533584,0.45344801195363532,-0.060177552849437814,0.4649822182603604,0.037822783606223917,0.078422850943870054,0.27385629965813835,0.051503984206515301,0.086366938671476406,0.38988583833643925,-0.31058548394344182,0.32282448064972891,0.58747270844217869,-0.34267698176045941,0.30550524437693005,0.30881349865686097,0.10230243460279033,0.55510354628023018,-0.26844379386684997,0.15257842138858158,0.54016367088096107,-0.074038048948355362,0.77275619683793573,0.035304988329135423,0.20792311091711912,0.72521357956660282,0.41318678615102056,-0.052620671869541988,0.19626010228891064,-0.1874353967356554,0.36181590594406038,0.15086422816700606,0.78778462197078925,0.045109568184162452,0.98257969100619835,0.91396443142037187,0.15045090333180286,0.23649531245569194,0.10827819775578683,0.016640207252082394,0.30645580741283074,0.64009743867420865,0.061042855337640693,-0.31969300081343882,-0.1628868899919545,0.3258743251202828,0.093052338858148745,0.16055134345168387,0.69413412270797348,0.095245589316220514,0.27107200939604315,0.51478989962944877,0.28389550859083623,0.095555663433031901,0.5352750670635501,0.07706824836036083,-0.12425261868605453,-0.082412671288492945,0.53613475339559191,0.6972791150353832,0.21748941169371239,0.86697583829550784,0.13556524496994615,0.016259747695010596,0.0062410635661163212,0.034594286228337497,-0.10631206534168643,0.12885677586585215,0.17758587968281012,0.14010975597106826,-0.17753186541434787,-0.20970160220918749,0.69525752595197021,0.96699048162039691,0.74135894125897772,0.13051185197655268,0.37927562757261074,0.47095477154075971,0.53595151650651029,0.66211840672557953,-0.080706309442741042,0.19741610184144692,0.93929024831335073,0.71901769727142817,0.12557116155990455,0.3212715617110139,0.44724179809714748,-0.17686904818671814,0.44154845747672633,-0.44531339353793825,0.21603229616360431,0.12455861179343085,0.059824783456488,0.29622936486205897,0.15331704451227846,-0.072555011271083464,0.42661526270980682,0.39953863969723291,0.23129174111118134,0.76908497845040513,0.92328471674510848,-0.0023140071734436803,0.24710560259526668,0.23500159235904469,-0.26415745996097845,-0.16406537764354784,0.63017314495274823,0.057623666764750107,0.63870038071942647,0.1580005717824372,0.52356101412745526,0.034043631284053202,0.33292283743489015,-0.078372846657731657,-0.4386424743949604,-0.14948710311790847,0.24969994855759542,-0.31159112397742311,0.026489865659920366,0.089925189299166403,-0.34924207961915399,-0.040134038338138008,0.14864184050559914,0.046389222589920953,0.30537019552673739,0.38735076272461888,-0.49148443814310666,-0.49845102224807869,0.52911933635167563,-0.11501796704758831,0.61575196626235507,-0.020459166864115839,0.41513498649477448,0.25676888780780388,-0.27022734733164705,0.18335907380659949,0.047593084312689694,0.41237852285845683,0.42809643150697252,0.60759462242125828,-0.28019622468881311,0.29961847551529647,-0.27648448180542334,-0.052047760069567545,0.17505556550492843,0.15590649823456368,0.4395078328117451,0.7713170068010945,0.94572123257574503,0.81518746276812171,0.32431223464825421,0.46165915121448697,0.34154363030907997,-0.68352345701066231,0.42778679181794532,-0.030855513576508432,-0.16046256703544512,-0.13219431835096301,0.074507964897563533,-0.030108170025161925,0.044684508431924029,0.13940496100914426,-0.19914926927132873,-0.18692201265825784,-0.20690446717803757,0.26661730530266986,0.0039904720022695683,0.29369563164926432,0.096138986713907346,-0.021053548026237937,0.48658411522795725,0.19504124303330284,0.51632629125619134,0.98065070049621672,0.11001370935754873,0.59315617604198456,-0.046109850996146021,0.022980602466579732,0.051618158324950168,0.24599735448266716,0.15031115402375775,-0.01356415585308589,-0.13898772931463019,-0.24332028421351307,-0.35880753646408425,0.093732658028980412,-0.22232762212975563,0.16687852707339987,-0.27019339555169974,0.38214175283158119,-0.29593911942022505,0.08551966162314735,-0.12959182167663538,0.54103393478527184,-0.28258910511679991,-0.11334729125129489,0.33896294872253552,0.72018982335286452,0.05053078879309636,0.62268914039236711,0.50877662859192108,-0.17305134384183873,0.67167279112042177,0.28408094801110562,-0.33361014707356557,-0.59249105679303427,-0.016329433086701966,-0.45994757563977062,-0.11461697164447876,0.26424864268975662,-0.30966901852909379,-0.38257179306637251,-0.098397059080131924,-0.32294817389026054,-0.60698250463382908,0.23481428557265716,0.18341306011874189,0.42530081145985599,0.10446259956482336,0.030159054683491029,-0.34602574910267125,0.44003425433228083,0.44332441349591123,0.18835405609404388,0.96839783180103922,0.65400076514306049,0.20552397305828421,-0.22328416882740335,0.22074069020868567,0.27799808005425242,0.25403968643054425,0.083675953615516094,0.1817617196566485,-0.10376305762384329,0.60762007804505602,-0.061578114258813314,0.41726166184635038,0.10086509591670061,0.42273591960083562,0.03004381164869915,0.011191871763421114,0.3756000232004949,0.70660931094648494,-0.44485198904897283,0.17291754167267129,-0.10797051051912744,0.46685061879253764,0.38844215326388765,0.30433949370374114,0.11905151460615304,0.69468086809063134,-0.025212075773609233,-0.38220947396780258,-0.33209876840115404,0.014554482580637672,0.42911992749062805,0.17155482676491451,0.32316720000074273,0.55784663570498894,0.080556747177960936,-0.10788603244704256,-0.096964944705105638,0.2582863181258645,0.47072263699515077,-0.39721656702341823,-0.21906451597868212,0.32976992463194804,0.81414935505349961,0.37535412309548555,0.0097646264369713603,0.081268809178120766,0.92205459276875612,0.3533091538798685,0.42029413949093164,0.92956965106482459,0.21367909391354245,0.10413801622243425,0.067657164524324784,0.14956561485632613,0.26644299052767006,-0.25966157235798776,0.021166488273367826,0.061226816836574258,0.03838184593316344,0.2665104060743671,-0.3693331384564621,0.18155414100477138,0.12933192983540576,0.47966685443007018,0.37180690136319622,0.21475309078025501,0.54134832044992065,0.9337213256915502,0.60867084228871926,-0.042346207103301559,0.51831834737710214,0.85774103407373659,0.23408897351134128,0.28283716715940954,0.78461416193879718,0.7163982848995567,-0.46935458069648833,0.20743704716954608,0.32211993277620071,0.14927906891561724,-0.095934334020432013,0.053846458230259353,-0.12506853881204963,-0.14056308538360501,0.42395888643670021,0.023174825081820297,0.11970892516317624,-0.14063115570514825,-0.38214372817615722,0.35832873486807659,0.21686346138406865,0.66529825428326539,0.27595576060195104,0.41749444385471191,-0.32148137399938087,-0.038281205489816464,0.47980165817233661,0.097784493154541741,0.55299024908861116,0.52420948469983475,0.66196528292691625,0.041146328534465794,-0.033275416406124809,0.48913956940555259,0.12584568766937596,0.069490641025378386,0.48702466214561774,-0.13706067902184543,0.056166905980322139,-0.47885350404916749,-0.28755847349682634,0.069932739839149258,0.8054951104162309,0.0094161150767991808,0.73123379613528794,0.036760749818471439,0.15929708550064869,0.66297427078056725,0.3476755577080558,0.66219004238354506,-0.13215152873672059,0.66124565023644188,0.70324544093617491,0.46564694387693872,0.9890734303946378,0.3506866531934556,0.34346909346699367,0.2157772158989657,0.44023735090502847,0.37408106872662572,0.24530754248847966,0.50898402714566704,0.45933366591588004,-0.11555373112234874,-0.29072392357803162,0.56061047870145797,0.4636796972783167,0.5795676231861232,0.62688277122845526,0.88901646907051046,0.58413223018751848,0.15075622456337145,0.43796392308052168,0.63219902654669224,-0.11562060218492469,0.25796643971926797,-0.14286846650154111,0.4343755100823139,0.40501065919224599,0.9778687794461115,0.076826176674803071,0.14436933611910774,0.3675428491006254,-0.065952468047231552,-0.19422575459358146,0.55909512081390245,-0.12209441378296672,-0.20528394964792071,-0.16229663959098409,-0.20919279513607797,0.16437210031841931,0.59419155008272828,0.41431431277340403,0.31158851662857301,0.78641394085387206,0.24717127940958261,0.17756214926489755,0.021030541983355522,0.65771189969177879,0.10408480834831223,0.2432558355870883,0.70308637504683713,0.47953105875301494,0.062810651797681638,0.55074778237975275,0.1899893357912642,0.6561138081013832,0.44590432088908938,-0.17206374885747278,-0.1791561040815941,0.080195076429869658,0.33359064436913372,0.61680116621927916,-0.5823536201709989,0.5015777874792483,0.015043768526850904,-0.27449208472154862,0.61666499594416802,-0.24065302684697601,0.59096971016621735,0.16267560876930839,-0.33275076543810778,-0.20296953768270884,-0.013437325072938619,-0.57596404256747114,-0.24631995160657041,-0.13613638173324,0.93321394835242333,0.092943434071608544,0.24716433455798847,0.16445297126650027,0.42178182216307181,0.42750013387558639,-0.21610819301977052,-0.46805636579509718,-0.58311948510351819,-0.16074591540397071,-0.24800117417049933,0.64086713779873106,-0.2991152055039682,0.49632170413560006,0.088689984235585606,-0.051644939556656597,0.23993731872379223,-0.26714507723559522,0.17195879890359095,0.48987201689135262,0.17985945170531475,0.51009752953370424,-0.14760100726543113,0.30200232545618161,0.59009901377985285,0.6614048280664746,0.52876903430176259,0.50326144225503833,0.73562254089335954,0.87703476859065022,0.67936706555996007,0.274161905237649,0.086704856684096485,0.020998976851356967,0.31051000969148917,0.46797320295111261,0.27008373991119877,0.51634791428646232,0.15206345454149073,0.048195958191959161,-0.11410936010773345,-0.24003650484153136,0.058207948165382314,-0.47954307828193188,-0.15653989850247965,-0.37648089461028472,-0.4369949568993553,0.19680107011810671,-0.10595445865902289,0.14685560681638354,0.99033037952431924,0.62845816703563462,0.75260319383283847,0.11293183368338433,0.57767508636966847,0.2578779884199856,-0.22388117774102007,0.36982614996481178,0.57112355505906909,-0.338243343444662,-0.5876749729844325,-0.20860974180463496,-0.52233193287676638,0.69472948548863156,-0.38724155805803262,0.17801368497320247,0.20903350739347665,-0.30750693018922737,0.29788355873349115,-0.076795768178405749,0.44951258818618656,0.47583579755670957,0.20823945696328677,0.064113009757058012,0.97616454566981747,0.40455637933501132,0.017035115848795357,0.019062843159848852,0.52439148630069354,0.055579010389362971,0.50261598408331487,0.61790599221109399,0.47294180156569376,-0.0046278248101960509,0.062878404685053416,-0.2598282089566577,0.11602969742946832,0.39216764749194316,0.32022151248318437,-0.26042161242401812,-0.17910755299453995,-0.13842382344510848,0.49938862121943328,0.0047640483023673715,0.39490652567778395,0.11190006885997396,0.03934310769287,-0.29962077163177958,0.28985339648317937,0.27773125312669322,0.35128175018223029,0.071675121689193655,0.87481810881424882,0.16466360668374036,0.29654866897519161,0.5302808284139835,0.47895039783479576,0.44706152315866587,0.23609144702014895,0.091022296667623848,0.11496748551869818,0.44224918177103956,0.11844343231867371,0.10744337475508503,0.70204525699670395,0.085989018527700467,0.75847925510186309,0.69823682805593024,0.6813705984941365,0.14841715644363596,0.96001726099799922,0.30300554010243541,0.93686739556401122,0.27514554321602025,0.16514689546161443,0.22141325161836434,0.39654976759247884,0.67314785512369901,0.26587247825572191,0.95353964800151281,0.28311859525672289,0.2921269651156343,0.26608596445332944,0.44161160383584108,0.69846835163785725,0.38634121243072483,0.27773905311629465,0.87457974953441464,0.97160985576722836,0.21016799164989786,0.41736830382407708,0.42797771298528764,0.39145644263642543,0.35655337686174904,0.36379389909030713,0.57258659675413681,0.240812486502468,0.0044719101839606479,0.31014251109446966,0.48048822478275421,0.14415139868225813,0.35685344442633726,0.11397223373124676,0.24683128781332397,0.62806986622511474,0.31710042096109492,0.28069690685272308,0.31749728586069415,0.20401434069218616,0.6579923701795205,0.56632443527259269,0.37275342363849762,0.31650539831521685,0.98755915121089732,0.81774268834827324,0.16158758209765878,0.48046634916746223,0.27466139812633916,0.56363459298833085,0.8779504320278434,0.18945216172268198,0.55519184005777078,0.93898425299001431,0.47513213080776195,0.4877027282969808,0.028003995678871796
